. 1.0928789 0.17967981 0.15662804 1.1014699 1.0704089 -0.14862227 1.0072426 -1.4700062 0.08343415 1.4367678 1.5655568 1.6455033 -0.5934561 1.8300536 -1.3192675 1.3582339 -0.5205551 1.6168982 -2.502486 1.5249681 -2.3195777 0.96093345 -0.5152773 -1.5360323 -0.99023646 -1.2789099 -0.885971 1.4922929 -1.568032 -1.336322 0.6813504 0.1352743 -0.76835465 0.98372805 -1.0824912 0.2721731 0.4867816 0.481766 -1.56138 2.205617 -1.4455807 0.22336656 1.358333 1.8790159 -0.7605711 -1.4404311 -1.945172 -0.8844804 1.1593933 -0.46517134 -1.590207 1.3837622 -0.1912539 0.4077967 -1.71235 -0.65178525 -0.25081262 1.8461719 -1.6903759 -1.9472302 1.1908772 0.021437472 1.5319836 -2.5919862 -0.54088116 -0.37837788 -0.3259622 1.989367 -1.474677 -3.1751525 0.20926213 -2.0471492 -2.8915272 -0.41961953 0.6650642 -0.5741439 -1.1105013 0.44957793 -1.5393896 -0.06472168 -0.8883327 -1.6047009 0.045339003 -1.6280099 0.7362607 -0.48296225 0.58641416 -1.580759 1.4996827 0.84855086 -0.46901238 -0.49367276 1.1609751 0.73373777 -0.18617503 0.39190015 2.4912484 1.3484079 -0.48077366 -2.82567
the 1.7322286 1.8824348 -1.6632448 -1.0569535 0.5134769 -1.5664201 1.2573595 0.29468086 -0.5188803 0.3235465 -0.28573486 -0.19235808 -0.900349 -1.6248589 0.4816246 0.67273223 -0.31094763 -1.8102052 0.8935149 -1.6743792 0.5875085 -1.3993888 -0.13611323 0.4467315 -1.1138114 1.7645164 -0.22716542 -0.0818276 -1.3523109 -1.6902026 -1.4299306 0.65382445 -1.5230793 0.20986968 -0.1634368 -1.2023847 0.06515666 -0.6111344 0.7595029 -0.32451066 -0.7268595 1.9502491 0.72494423 0.869254 -0.6098841 1.2182872 -1.2983823 1.5420717 1.3982229 1.9211286 0.39042732 0.22109672 -0.49250022 -2.0464323 0.43203712 0.028371815 -1.188282 1.8155305 0.74400556 -0.6561099 -1.2039343 2.5009165 -1.387363 0.38076094 0.15808357 -1.3828954 -0.3359971 0.9413146 -1.2981998 -0.3589397 -1.6209298 -2.2358675 0.6609605 0.050657816 0.5392861 -1.8978124 1.2841214 0.534106 1.9843215 0.583071 1.925058 -2.0965333 2.9642813 0.19165155 -0.5699232 -1.328148 -0.87992215 -0.8719281 0.1372749 -1.1621678 1.1500403 1.6856202 -0.05096501 -0.10055486 1.4242167 -0.13359848 0.32313108 0.26837835 1.7618268 -0.5900275
i 1.6708037 -0.63364553 0.8080049 0.36360806 0.21766326 0.96752214 -2.1597588 -0.0896668 -0.58803827 -0.7253743 -1.54963 0.8077934 0.5557892 1.0248027 -0.5893027 0.91376615 -1.0389826 1.214739 0.0694136 1.4054676 0.0059828456 0.1962027 -0.3711802 0.372586 -1.2661601 0.64621073 -1.2019656 0.084604956 1.3995365 0.7735399 -1.9296066 -1.7980909 0.03474408 0.33528444 0.9077274 -1.1804222 0.058420334 0.23257917 -0.25163457 -1.937817 0.91542816 0.5874594 1.061342 -0.47751275 2.276905 -1.9276218 -1.885205 2.4587977 0.7180268 0.7521437 0.8630342 -0.11820766 0.24228446 0.19949137 -0.25370365 0.7942744 0.8943799 -0.07921421 -1.0231478 -0.5216055 0.6506913 0.0932204 -1.0799271 0.51342875 0.6714658 1.2445023 0.0065980055 -1.6529628 -0.7207747 -0.13015129 -2.3753436 0.69139165 2.3292603 -0.77440906 -0.8884237 -1.0274619 0.12143869 0.074991316 -1.191456 0.8007707 -1.4742191 0.5508903 -1.3987665 0.22380552 0.085758485 -2.5508673 0.4903407 0.70509934 0.6547571 1.1767809 0.9366714 -0.74509877 0.26683304 -0.30982062 0.21324973 -0.005507118 0.3949535 1.2518059 -1.4756637 0.2650607
to 3.4048173 -0.050289858 0.09107349 -1.8960912 0.8234822 -0.16651508 1.001349 -0.6582421 -0.079208374 -0.5830337 -0.8050394 1.0037814 0.16267614 0.7358594 -1.8740792 -0.6480303 -1.1433772 0.38516372 0.4514644 2.7951589 -0.4057652 -0.51729393 -0.7031979 1.2173451 -0.8521618 0.3284902 -0.13472024 -1.2416037 2.12926 0.7272416 0.788749 -0.42051685 -0.18330593 0.016600441 0.28385317 1.1213684 1.5040393 -0.43263397 -1.0292299 0.628872 -0.74618196 0.6358073 2.3125365 2.7294152 -0.56041634 -0.6935118 0.035421535 0.9928982 -0.9479423 1.1557604 1.3420049 1.269489 0.33321622 -1.4656097 0.89979655 -0.80643326 -0.8033828 -0.66881394 0.53592396 -0.65747315 -0.5999901 -0.4175496 0.5407692 -0.38820586 0.9478088 -0.47937077 1.475857 0.8913099 1.4637725 0.8479838 0.52447385 -1.9763741 -0.5582469 -0.25149328 -0.16936429 0.31286314 -1.1362902 0.38527647 0.40063184 1.4283475 1.1856402 -0.09001819 -0.40663204 -1.23855 -1.148329 -1.4967963 -0.6763665 -0.07571474 0.16027921 0.14937839 -2.3117368 0.83903605 0.63365614 0.21582803 3.5994081 -0.5078301 0.19954951 1.1199744 0.84588003 0.4863273
he 0.4005181 0.7569993 0.34099016 -1.2349297 -1.0760107 -1.7693993 -2.330273 -1.6771517 -1.405015 1.3996975 -3.0774662 0.2123454 1.3104272 -1.9107275 1.1525167 0.5045963 1.4836551 -0.8220435 -0.05840212 -0.13826409 1.1125342 0.87599474 -1.715203 1.6264484 -0.5602178 0.2618215 1.3869493 1.0610847 -0.26248467 1.5985122 -0.6190084 1.3931885 0.2905812 1.5055662 -0.6689729 -0.758727 0.107925296 -0.6068246 -0.1646891 -0.41082558 1.6481284 -0.035061233 1.382471 -0.9736131 -0.9603376 -0.30426198 -1.4596145 1.8866851 -1.7742913 0.67369425 -2.5942926 1.6521825 -0.73207134 0.10746006 -0.57819664 0.8841072 -0.6296994 0.2024994 0.2453676 -1.3185059 -0.5591743 -0.19096641 2.572086 -0.34850672 0.28939047 -1.7058649 0.5754512 -1.2312963 0.768344 -0.18654366 -1.4389905 -1.242813 -0.45610046 -1.2530084 -0.4644551 -1.2431005 -0.8122624 -0.27777484 -0.24694918 -0.24407767 1.3416737 1.065205 -1.8981229 -1.4482826 0.31398493 2.1213398 -0.67758924 0.41213825 1.3142822 0.87047833 -1.5458215 0.4418509 -1.0412103 -0.3742463 -0.78633857 0.9708886 -0.35871595 0.78843683 1.0414855 -0.018631352
you -0.24322681 -0.43405077 -1.2378223 0.8883523 1.0351971 0.14867845 -1.8505254 1.4742557 -1.7065696 -1.4165584 -2.552216 0.6036015 -1.8287936 -0.9471382 -2.5226943 2.8440328 -0.7019116 0.13121662 1.3882446 -0.79242396 -0.85413134 -1.8483196 -0.5167287 -1.5714409 1.2562782 -0.40131173 0.3606209 -1.3249186 -0.5183037 0.16477183 -0.09915686 1.542734 -0.8179152 0.018848244 1.668559 -0.37274057 0.18345466 0.9338757 0.14657594 0.30724943 0.5774312 0.65928596 -0.82675415 0.15984166 2.6963341 0.14143203 -0.50850755 0.78995186 0.23871118 0.91987574 0.8562143 1.2755756 0.26456022 -1.208804 -0.2228755 0.19365577 -0.20052475 -0.6065885 -0.46711206 0.60703295 0.004635302 0.6219808 1.4671733 1.4569386 -0.39563152 0.26673406 -1.6905844 0.6185705 0.8635762 -0.8141497 -1.4383861 -0.07984274 1.9140184 0.17511432 0.31656477 0.28236756 -0.70560145 0.6778228 -0.17462243 1.6408542 -0.3698485 0.486516 1.0101794 -1.3366699 1.89195 -1.4509692 -0.11150558 -1.0061705 1.5987446 0.6541872 -0.8725571 0.04270057 -1.2669637 -0.06560815 0.1253785 0.28547353 1.4802343 1.1795006 -2.3206916 0.4776748
a 0.77256066 0.21291718 -0.84505945 -1.6698059 -0.3583152 0.5490794 1.0519842 0.8698952 -0.8138878 0.26301634 -1.2000986 1.6536168 -1.051163 -0.24145156 -0.6571934 -1.1164442 1.0286169 0.53529716 0.54186827 1.8642622 -0.72267073 1.343053 1.5653279 0.09509352 -0.8480238 1.1256733 -2.035426 0.91424465 0.5735722 2.224433 -1.1566612 0.58148086 -1.3017324 0.5731515 -0.6822975 1.2068233 0.62379307 0.67960936 0.26054895 0.30017403 -0.5263158 0.31142426 2.635495 -1.9349393 -0.8180474 -0.71544135 -0.60599715 -0.5253498 0.128398 -1.1171868 0.18915784 0.17852148 -0.30727345 0.40694985 -1.1463856 1.2064646 0.16587055 1.4036053 0.8859168 0.88178974 0.48418564 0.31799814 1.5831364 1.7427806 -0.2268211 -0.7271094 -0.5900828 1.1349263 -1.5403516 -0.20142223 1.1842788 -1.6093035 -1.1307452 -0.3535301 -1.2714397 0.34775174 0.24456227 -1.8019335 -0.9490779 2.4339972 -0.72077185 -0.61780405 0.034163848 0.5101943 -0.55875784 0.8763348 0.9386004 0.06771444 -0.91923904 0.48727843 -0.53990567 -1.5921774 2.4310653 -0.46171767 -0.6594763 0.61526924 -1.4169524 0.3603381 0.39309672 -1.4144241
is -1.9675577 -0.55650777 0.8070389 0.32350188 -0.17019793 2.2531896 0.9019618 1.5230299 -2.04281 -0.68311644 -2.9151194 1.1828028 0.7958025 -1.5814047 1.5876726 -0.8429745 0.597793 2.1359515 -0.8828303 0.2895575 0.070074156 -1.5280735 0.72032064 0.27656764 0.79905885 0.33763635 0.1859561 -1.795114 0.25795287 -1.3604892 0.66854554 0.35701427 -0.9676303 1.3696297 1.9269032 -1.9724522 1.7979809 -1.1511898 -1.1336406 -0.3308092 -0.36522582 0.92653596 -1.5737743 -0.53264993 -0.27574745 1.8096348 -1.3478497 0.3315158 -0.74150455 0.1575953 2.1143336 -0.84865177 -1.3983024 0.21478622 0.49777865 1.9740572 -1.590757 0.010233812 -0.51823926 0.019987166 2.7077224 3.4719357 1.0791517 0.37684524 -0.9599745 0.041050997 -1.0575399 0.07111013 -0.7190644 -0.7702146 0.30189973 -0.7023524 -1.184205 1.0594723 -0.17236835 0.77546215 -0.67663455 -0.36248666 0.86165863 0.16270672 -1.118564 0.69137734 -1.9285433 0.09218716 0.17675078 -1.0286082 0.89134073 -1.0238367 -1.6862248 3.4648592 1.8251103 -0.0969163 0.2970746 -0.9118584 0.9993641 1.1747185 -0.029071936 -0.9113438 1.2725364 0.74741125
in 0.03210375 -1.4737802 0.28889257 0.27064064 0.85876256 -1.8137429 -0.558024 -2.07271 -0.20998187 -0.7718976 -1.1114916 0.75386524 -0.01309186 -0.066577956 -0.8945032 -1.1315584 -0.29754657 -0.28575885 -0.6768801 -0.16401096 0.3286956 -0.3862462 1.7318232 -1.0418862 1.0403665 0.025642244 -1.2105085 -0.8687051 1.3542535 -2.433786 -1.4201623 -0.101307556 -1.2047377 -0.6944168 -0.20182866 1.5122905 0.2795393 -0.08442877 1.0697541 0.5552702 1.4023162 0.66164213 -0.31410795 0.54347473 0.3100177 0.3107301 -0.12396642 -2.2886872 -0.034913003 -1.9629644 1.2441661 0.33468646 0.19411507 -0.3748963 1.3847646 0.69891423 0.10425517 0.73275197 1.5119063 -0.97068936 0.9302992 -0.5763702 -1.0408996 2.0131876 -1.1615199 0.8533611 -1.3150932 -0.2438571 0.020283403 0.3760115 -0.018413648 2.4094653 -0.36022383 0.857516 0.56944126 0.24218169 -1.1695143 0.014872267 -0.08968278 -1.8688439 -1.2821401 -0.6051937 0.7415187 -1.054833 0.64901876 2.6212983 -0.45176962 0.7206071 1.3323 -0.03040228 1.3766944 0.7735302 0.5441394 0.08418086 1.7206982 -0.8480721 -1.1192256 -1.3024518 -0.051662255 -0.6687454
of -0.1304311 0.4432206 1.2546408 -0.8451805 0.0664119 -0.7377753 -1.9204148 -0.17726204 -0.8669073 1.958532 -1.1529322 2.449966 0.0007582164 -1.4330016 -0.3932351 -0.83247876 0.4640936 1.7606884 0.06958046 1.5368803 -0.8683852 -0.6085873 -2.533114 -0.13312298 -1.0041397 -0.19563937 -0.31829193 1.0142176 1.2253791 0.43293485 2.0853488 -0.37507817 -1.7816089 0.56274444 -0.41488522 1.8003798 1.2474676 0.65849435 -0.54794645 -1.2713292 0.33843008 -0.17813702 0.45853135 -1.6732316 0.73970157 1.1324472 0.6332458 -0.67057174 -0.6099927 0.6391482 -1.2787654 0.50411963 -1.3722143 -0.072582826 -2.0067027 0.675709 -0.33934978 0.96632177 -0.4004212 0.14148727 -0.31403667 -0.3886982 1.2965573 -0.6467496 -0.4423232 -0.23069045 0.87027776 -0.07333262 -0.24933292 0.029107833 0.1614974 -0.96492684 1.5403864 0.71286374 0.6644355 1.6097695 -0.3428083 1.2590111 0.21739021 -0.8692862 -1.1811868 -0.48509753 1.7347178 -0.27003747 -1.6491221 -2.0942106 -0.8284874 0.8547608 0.38733312 -0.3775985 0.791627 -0.72272444 1.19227 -0.44511276 0.054610834 -0.26151645 -0.32791126 -0.43649924 -0.52745426 2.8471305
it -0.51182675 -0.16133203 2.0108469 0.4680392 -1.1492534 1.5569791 -1.0485266 1.3806472 -0.6937421 -2.6348062 0.86218494 -2.2409258 0.15418053 -1.110462 -1.5153586 0.84362066 0.0610998 0.091242716 -0.48731557 0.24589022 0.2254682 -1.8410281 0.92596555 -1.4478993 1.5727754 1.725164 -0.13648507 0.97098094 -0.29135594 1.1077967 -0.017576136 -0.052380405 -1.0564371 -0.5782489 -0.8411559 0.97980386 -1.3967941 -1.2695698 2.6356697 -0.58504766 1.7010231 -1.7127527 -0.012221738 0.8595529 1.5059383 -0.19329764 1.2390401 1.0435938 0.07125771 -1.1218696 -0.4175293 0.7081026 -0.42743564 1.2510399 -1.091209 0.48174596 -0.21972744 0.6343879 -1.5155895 -1.2013484 -1.3284063 1.1262696 -2.2415926 0.5282658 0.8843616 -0.5903947 -0.056787312 0.92160785 -0.52290833 2.343845 -0.8258534 0.2651397 -1.3476623 -0.11781107 0.1471274 -0.017126698 2.0423198 1.2318522 0.30073223 -0.3759875 -1.0040601 1.1652418 1.734301 -0.47493675 1.6483895 1.4146285 -0.19281791 1.2638798 0.6793808 -0.96964073 -0.3567887 0.9335542 0.021409545 -2.4149992 -0.5025953 0.88142145 -1.4701792 0.71233374 2.3996115 -0.32634744
? -0.4381195 0.8808772 -2.3988662 0.09796489 2.3431416 -0.67191416 0.07164719 -1.5071325 -1.8328776 1.478371 -0.3855272 -0.36140752 1.8700402 0.6076584 1.7355503 0.7169134 2.2374883 0.8915427 -0.19344535 0.71575177 -1.2109108 -0.51877844 -2.2487357 -1.3514725 -1.3478303 -1.9349085 -0.4893564 -1.5153581 -1.5474641 0.47074005 1.4412376 -1.5850478 2.228553 0.17253189 0.4585615 -1.3395747 -1.7123339 -2.2925973 2.3691974 -0.25871116 -0.32644308 0.6544294 -0.23626836 1.4171755 0.6701954 -0.46812493 0.49712995 -0.26059616 -0.24676797 0.9444004 -1.0176877 0.9736138 -1.404916 1.1064125 -0.6032907 0.54614383 0.063955106 1.116726 0.42118204 -0.2494596 0.16737509 0.41118285 1.1503698 0.7952753 -0.12660381 0.77514243 -1.4807255 -1.3722738 -1.4286844 0.13486685 0.46053213 -0.22257821 0.009737011 -0.72050047 1.210426 0.50980365 0.100537606 0.1971884 -1.7342631 -1.9328469 -0.6330066 -1.7149916 -0.39985836 0.13039994 1.4896523 0.14917037 -0.9404328 -0.4366891 -0.25834003 -1.3550183 -0.62981707 0.818709 -0.16159375 0.22905958 1.0513251 -0.082163066 -3.3455913 -1.7324535 -1.6694068 1.3381674
she 0.729294 -0.4056624 -0.6110384 1.5711162 0.6548926 0.48498556 -1.1617386 1.317399 -1.1458094 0.5052608 -0.07433039 0.15488869 -1.2811446 1.0283973 -1.3499012 -0.91703033 -0.49926808 -0.56398356 0.9514602 -1.1711639 1.1501955 0.47567517 0.56949323 -1.0831753 0.86252356 0.26803532 -1.3158501 0.7570868 -1.1725138 1.8977895 2.3815305 0.50441605 -0.34009728 0.7480094 1.7984769 -2.2684038 0.69128907 -0.17351422 0.3674133 0.25675842 -0.15713781 -0.60749674 1.3208928 1.1614016 0.6618865 0.41107854 1.0823933 -0.18108897 0.08628549 -0.6708242 0.552307 0.39510286 0.5038855 0.1253842 0.63751996 -0.16010763 -1.3354822 0.38816968 -1.3822539 -0.71945006 1.452584 -0.025882846 0.06972078 0.6918372 1.0199133 -0.29280666 -0.7592754 -0.3203495 -1.5965837 2.2711556 -1.283601 -0.69067353 0.5254774 0.0023891528 0.3154927 0.019504478 -0.30024362 -0.29113504 -0.9318388 0.39066476 0.059199892 2.06001 0.27716404 1.236191 -1.3170087 -0.027619505 0.037797388 0.34639588 -1.774776 -0.5969112 0.045940537 -0.27036053 0.49695086 -1.2416768 -2.099711 -0.2894675 -1.1687998 -0.020861065 -1.5973351 0.94255555
for 1.6916499 -0.17757484 -2.116752 -1.4045693 0.039419137 -1.5308231 1.7046108 -0.18093146 -1.1556422 1.7254248 -0.14559898 2.7992287 -0.37657908 -0.19610855 -0.33885854 -0.78533286 0.16913937 0.45805627 2.1174526 -0.42203003 -0.09727472 -1.9625345 0.50559324 -1.0665601 0.44867125 -1.4952831 0.17102098 -1.7040552 -1.2308968 -1.1488982 -1.4278356 0.96951175 0.39004022 -2.4894927 0.041765016 1.8621453 -0.5387154 -0.36839372 -1.6278399 -0.8810425 -0.94920474 -1.2973696 0.281606 -0.040606987 -0.35268217 0.62806 -0.011802483 -0.7217121 -1.3004811 1.6001952 0.30655405 -0.2588269 -0.5635874 0.8973518 -1.8615451 -0.4900152 -2.0289474 -1.1810515 -1.4739636 1.0678507 -0.15813814 1.6015259 0.56146854 1.2846252 -0.8520691 2.277119 1.0735143 -0.021460466 2.2756987 0.029246703 -1.2268193 -1.8720192 2.9073694 -0.118750535 0.30267838 0.34375522 -0.11429427 -1.6192061 0.8148587 1.1065671 -0.981472 -1.3037374 -1.0671201 -1.2885059 -0.5619371 -0.49038643 -0.63835275 0.07999437 1.0193871 -1.7617567 0.49831498 1.456719 -1.1415898 2.1155877 -0.47199234 -2.314402 0.57969433 -0.9773289 0.7499026 -0.93903315
, -1.284125 -1.2944967 2.3191056 0.25026417 0.56046176 -1.2161685 -0.5141093 -1.0590266 -0.13260564 0.5747559 -0.2033822 0.22578168 0.70653325 1.0441101 0.45332637 -1.0168803 -0.87140673 -2.0867312 0.8730417 -1.1469243 -0.38235587 -1.2830843 1.2198032 0.26795322 0.8148018 -0.908913 0.08407071 0.82585454 -0.8533529 0.2498557 0.28220794 -0.3105041 -0.5095792 1.2092881 -0.33955136 -2.5040727 2.7102582 -0.8326687 1.35343 -2.089752 1.0635103 -0.62561804 1.0989177 0.235209 -0.9839025 0.9334253 0.8423524 -0.49472257 -0.39910698 -0.41692308 -0.10024328 0.13036758 -0.33921003 0.67784226 0.62494546 0.012052806 -1.2884165 -2.0480092 0.2829469 -0.17438059 -1.659074 -0.6234937 1.515103 -1.5314723 0.5131539 1.2256354 0.5109694 -0.39390433 -1.1558564 0.26493403 2.441319 0.88649756 -0.33006334 -0.82268673 1.5164177 -0.40134665 -0.81820655 0.5515057 0.30938688 -0.56952465 0.036702912 0.02657833 0.3759451 -0.42638186 -1.5057503 0.03598984 0.5445647 -2.206045 -0.98128164 -0.10292793 0.61456305 0.10890994 0.40119156 1.7247375 -1.3939899 0.6835132 0.2381769 -0.7700858 0.08565756 1.543438
this -0.01809996 0.7666246 -0.09637544 -1.0425725 0.45324728 -1.2019701 0.7183512 -0.07533534 -0.9049424 -1.6349686 0.14159179 0.13799211 0.6755647 1.1491772 0.15507187 1.1442424 -0.16121106 0.19608581 0.8388996 0.50432044 -0.6612046 -0.8272404 0.048065722 -0.20464577 -1.3338249 -0.2226464 -0.14606716 -1.265758 1.2555609 -0.17540218 -0.20627801 -0.60282487 0.5862145 -0.73621225 0.712343 -1.0012399 -0.5980126 -0.3294166 0.40102917 -1.2287254 1.4657439 0.3609501 -0.13353384 0.4403156 -0.23327793 2.061449 0.027557157 -1.3127451 0.49445167 -0.5025337 0.8758153 -0.30975384 0.043067098 0.9492288 -0.63480496 -0.84901714 1.3242879 -0.713464 0.874898 2.3335886 -1.7343153 2.109065 1.2734326 -1.1819069 0.7129695 -0.23905973 0.18339445 -0.32753557 0.35350564 -0.2447673 -1.1421058 -0.53462154 1.6079825 0.258602 0.04077836 -0.23625606 -0.6223772 -1.2824626 -0.63487804 -0.6273544 0.40548941 0.30137998 -0.22208665 -1.0729741 0.29233086 -1.2700187 -1.2451049 -1.0898473 0.28727126 -1.2376224 -0.24296267 1.6926496 -0.29129916 0.8430423 0.7672244 0.29447392 -0.08495712 1.17175 0.98215884 -0.63857144
me -1.6392394 -0.08032319 2.3012342 -0.13218059 -1.0229229 0.7733464 1.9517887 -0.34153974 -0.9404668 1.5096036 1.0458579 0.101752155 1.0200183 0.36080176 2.1053257 -0.8996931 0.56644225 -1.200801 -0.5328118 1.8545907 -0.08889746 0.9195793 -1.5419047 -0.011513745 1.0750083 0.34116974 1.8489851 -0.41067708 0.3341159 0.7526448 0.9631192 1.0685157 0.51327425 0.29371682 1.4967079 -0.8650785 -0.171852 1.0340996 -0.064085625 1.5737592 1.0169473 -1.3184906 -0.3298156 1.2313026 0.16559184 1.2719009 0.3010375 -0.919928 2.0584717 0.9584371 1.0331404 -0.93844235 -1.2318811 -0.26195768 -0.30138886 -1.2049708 0.6840565 0.3537014 1.4589394 0.6454707 1.0155704 1.352977 -1.6421583 0.5065996 -0.8461884 -0.17875604 1.1635793 -0.574597 1.5126806 -1.095858 -0.3093723 -0.06393841 -0.7489289 1.8376471 -0.4449068 0.033434875 2.7939985 -0.6889356 -2.397676 2.202528 -0.062524386 -1.7189913 -0.14677027 -2.1759045 0.48768798 0.1652304 1.0556091 1.527685 -1.6951813 -1.7306678 2.6047697 1.3020761 -1.3455182 -0.2679755 -0.600175 -0.29285505 0.7318821 -0.81463194 -0.86758596 0.13253787
his 0.26494372 -0.062229298 -0.78149307 1.3738834 -1.5554609 -0.7273478 0.3909847 0.45917988 0.2830323 0.18166153 0.011939754 0.023961175 0.51351047 -0.21908727 0.8376962 0.33760166 0.07818413 1.0249524 -0.4099658 -0.026165 0.86869305 -1.5771695 0.8604092 0.66833484 0.44755703 -0.123653255 0.8914221 0.04447589 -0.31256157 -1.3018689 -0.7524544 -0.35558105 0.6326182 1.2016784 -0.4466918 1.4564302 -0.837432 -0.2570645 -0.8530903 -0.7968363 1.3726574 0.79733807 -1.913935 1.4634238 0.97320217 0.25548995 0.46458355 0.58835375 -1.0133269 -0.4920357 -0.021978015 0.68842316 0.47008696 2.4410899 -0.10403042 0.03712083 0.003988242 -0.89083195 1.6055633 0.8016914 -1.4002969 0.7532931 1.0525562 -0.48117357 0.3016466 0.0520553 0.4336352 1.3082923 -1.1343057 0.8706386 0.56280464 -1.632417 0.37982357 -0.5397429 -1.6396458 -0.15424731 0.36687875 -1.2112863 0.7433994 -1.4883305 2.277598 -1.4442266 0.83759683 0.08733247 0.8228511 -0.39394212 1.1751387 -1.1225792 -2.1758368 -0.57277215 1.4042609 -0.021237826 -1.9465374 0.14388713 -0.5581503 -0.9686525 -2.76303 -0.4117257 -1.2219535 0.6839988
was -0.90300715 1.4498423 1.6692468 -0.41619715 -1.7769845 -0.17466596 0.27116317 0.5919875 -0.54686594 0.36215293 1.5257565 -1.1896865 1.9959193 -0.410539 1.4101294 -0.7463085 2.0133307 -0.9505687 -0.8726752 -1.3297538 -0.0683754 -0.17566577 0.47189525 0.9615725 0.71709883 -2.1830125 1.186804 1.6713674 1.9150424 -0.8691674 -1.8153297 -0.61775666 1.4309863 -0.33166936 -2.1460881 -0.42775163 1.2962521 1.6171656 -0.65917486 0.92187905 0.620687 -0.82058656 -0.3519251 0.6837652 1.797605 -0.05968982 -4.036972 0.04575491 -1.3880609 -0.022880126 0.7687094 0.030561352 0.5059613 0.13814902 -1.5581584 -0.5949726 0.6856937 0.296986 1.1450553 1.389332 -0.115471676 1.6452446 0.4718272 1.1568881 1.0983285 -1.5376065 -0.92744356 -0.5553552 0.4769054 1.3186102 0.23344332 -0.35509378 -1.8553796 0.523651 -1.1800916 -2.1669388 0.08331062 0.44362193 1.0252582 1.1002494 -0.31315497 0.80869037 -0.66634536 0.23438473 -0.3798012 -2.5404086 1.1489164 -1.3379158 -2.3517358 -1.23402 -1.2584857 0.89836156 -1.2574568 0.40754 -0.17561941 -0.09711062 -0.4044189 -0.041346375 1.2871242 0.81830066
't 0.5985814 -1.0825043 0.5232407 -0.13332966 -0.6030302 1.6127615 -0.3509654 -0.99855345 -0.7367162 -0.8298929 -1.6310861 -0.3443658 -0.6408299 1.300836 -0.28583992 0.27074802 -0.23539601 -0.16945288 -0.11964769 -1.8433979 0.30287895 0.4113323 0.58144534 0.25102058 -2.381003 -0.9077873 0.004155737 -0.25839138 -0.08084065 -0.8234649 0.1838442 0.19461149 1.424314 0.08438407 -0.8207681 -0.28787518 2.1157932 -0.7975612 0.6279427 1.2157466 -0.28452063 -1.1386604 0.1552534 -0.9303043 -2.3570943 -0.96441495 -1.0786722 -0.21329956 1.03864 -1.3869731 1.2386969 -1.6784165 -0.42629912 0.5123487 -0.09662326 -0.6926397 -0.330872 0.7005922 1.0888028 -0.64754236 0.85133874 -0.52155596 -1.0417792 0.603763 -0.472372 1.0854406 -0.15259966 0.5761665 1.3410616 -0.99482626 1.3325846 1.8748332 0.857994 2.129212 0.5700692 0.023367202 1.1535611 1.0631709 -0.80849963 0.28605074 -0.24773538 -0.08082936 0.13858342 -0.7280389 0.08937226 0.08665224 0.90201473 0.1728176 0.7071714 -0.36233157 2.2824986 -1.4754803 -1.2751226 -0.8745571 1.5852599 0.07768173 0.3606623 0.3448764 0.02124471 0.08598261
as -1.0554059 0.07925045 1.5223346 0.40012383 -0.010807478 0.08272121 -0.9587878 -0.20427 -2.1345909 0.63213784 -0.11244826 -0.031530425 0.20516737 0.052531734 0.3941917 0.49086237 0.42811483 0.55115366 1.7136983 -0.14437617 -0.28177446 0.33917248 -0.75320876 -1.484076 -0.7826509 -1.188119 -1.0321189 0.59911484 1.450904 0.5747136 0.21034281 -1.1418422 0.20683746 -1.3626685 -1.0156991 1.9814386 1.1950767 -0.6275929 0.4721939 0.33478907 0.039627448 -0.5574254 0.29589683 -0.55552435 -0.7117009 1.075601 -0.39294544 1.2356606 -0.7569203 -0.6304109 0.43568534 0.08508845 -0.8430336 -1.2412632 0.38768885 -0.40084094 -0.4770942 0.06168059 2.304141 1.336375 1.3483095 0.19363981 -0.5252321 0.4767633 -1.2220638 -0.72946304 -1.1278775 2.1781497 0.5462403 1.4059161 -0.053339884 -0.21022962 0.38718584 -1.5393636 1.1952757 0.15073371 0.63165134 0.11748902 -0.36931 -2.057479 -0.1576742 0.9104789 0.51022524 -0.23329736 1.5289658 -0.0011801143 -0.24198943 -2.3361266 -0.7639353 -0.055311017 -0.18274729 0.3190774 -0.309839 0.96940327 -1.6733323 -0.61895555 -1.1296431 -0.7363902 0.5036988 0.2029657
with -2.236676 0.49306163 0.38882673 -1.9027879 1.7293557 0.076745115 -0.95784944 -1.6620895 -1.5492178 2.1605196 0.035579674 -1.1637236 -1.3669825 1.1291153 -0.14538838 2.2374563 0.19699702 -0.926808 0.8924023 0.19793418 0.7292083 0.27050257 1.4726249 -0.23048484 0.6634828 -0.82082325 -1.2280406 0.44405475 -0.8577755 -0.08029513 0.30366606 -0.6282604 0.041404326 0.7814066 -0.44109297 -1.0141989 -0.28336525 -0.6934357 1.5282323 -1.5938536 -0.39400682 -0.5042934 0.25036874 -0.6139764 -0.64638853 -0.71042746 0.99940544 -1.5086823 0.6516151 0.7773167 1.0109338 -1.0515525 -0.91437507 -0.26024678 -2.4660714 -0.31315908 -0.34503743 1.8318509 0.60979176 -2.4140854 -0.89708596 0.21444587 1.4830129 -0.25938654 0.06351355 -1.4462941 0.9924687 2.0226517 1.0486932 -0.19410227 -0.048822258 -1.2784499 -0.3814056 0.00863672 0.8941495 -0.4507435 -0.747363 0.7981557 0.5896104 2.140655 1.0120567 1.4746436 0.17369665 0.7931798 -1.99832 -0.9331388 -0.1325126 -0.60824174 -1.5630848 -0.19421215 1.581564 0.2184212 -0.004217533 0.03321686 0.25986743 0.59989226 2.943179 0.1168019 0.33022732 -0.70041066
her -0.938371 -0.71540904 0.29711795 -0.48425224 -1.0663384 0.6219259 -0.02903084 0.4047472 -1.1099817 -2.1285803 0.4558353 -0.17530064 -0.8530305 -0.108585685 -0.0053279204 -1.2065485 0.04609006 0.676458 -1.0974398 -0.6374245 0.9054703 0.8366451 0.1592672 0.16948293 0.83866936 -0.025174797 -0.6783931 -0.61210626 -1.672165 0.7223274 0.9435237 0.27154234 -0.6626138 -0.5757919 -0.15597178 0.26513138 1.6559774 -0.9899892 0.15642461 1.0885061 0.13311698 1.3708318 -0.43121505 0.23263727 2.9497874 0.55962926 -0.43144813 -1.083433 0.5794278 -0.6448953 0.8004721 2.5198102 0.43993694 0.4944807 0.97218597 0.68785495 1.4013124 1.499176 0.06987932 0.73804784 -0.0835328 -0.5820937 2.3662117 -0.56949353 -0.21627676 0.11546107 -0.8650362 0.29617283 1.5674434 -0.2466182 -1.7483097 0.7088053 -0.21800525 1.3729337 -0.8005264 -0.7814251 0.5204103 1.1705408 -0.5734035 2.1105294 0.33645985 2.8550737 0.2641399 -0.19807424 1.0280802 0.46058232 -0.20829636 0.3224379 0.84978104 0.9707723 0.85748124 -1.061016 0.040586013 0.6754002 -0.23518384 -0.47989428 1.8082203 2.011884 0.9675202 -1.8332855
that -0.19344908 -0.92413926 0.19503169 -1.5656273 0.4888849 -1.4961938 -1.0057337 -0.6122336 0.3049174 0.5068019 -1.0126673 0.9109534 -1.0684737 -0.8877458 1.0028926 1.1163402 0.45793357 3.9215152 -0.7411118 0.73135793 -0.7244376 -0.60066503 0.93668944 -1.1050549 1.5192869 -1.9058264 -1.4326499 -0.7842955 -1.0112414 -0.09169135 -0.49608794 -1.7808998 -1.8718184 2.4472313 1.0000429 -0.46725407 0.7147088 -0.5987852 2.907688 0.5992531 -1.3338773 -0.31611305 0.035607412 -1.5397261 -1.6172786 0.9421056 -1.1982297 -0.41407958 0.20457636 -0.7438517 2.0658014 1.8145561 -1.4601425 -2.0921474 0.5565388 -1.0539961 -0.058106743 1.163445 -1.2496144 0.2696222 0.40863526 0.4452648 1.1000713 0.8903725 0.022653444 -0.82748187 -0.29816416 -1.2853492 -1.0924966 -1.6922194 2.0195088 0.061447 0.54740626 0.6583623 -0.51863134 0.9923107 1.0766714 0.027346313 1.1598806 0.28004268 0.22641325 -1.4713732 -0.5234701 0.2237498 -0.5616633 0.63522404 0.8832745 -0.5069547 -0.27829558 0.8708302 0.6800481 -0.22302026 0.33530176 -2.0208337 0.2015064 -1.044067 0.2635504 0.064993255 -1.2281399 0.40023977
not 0.40082696 -0.7892032 1.3221064 1.2240834 -0.71692556 2.163575 -0.045713734 -1.5851346 1.373753 -0.20149097 0.18287276 1.5076725 -0.8098117 0.53003085 0.6849831 -0.3221572 0.2547276 -2.3588212 1.4971559 1.337637 1.8991952 -2.4416587 0.8535746 0.23105884 -1.2484323 0.7858076 -0.9809798 -0.437009 -1.6655458 0.66329664 -0.52141064 0.59781694 0.15881777 0.37436235 1.1878748 2.774013 -0.84128773 0.5256512 0.48238155 -0.25575784 -0.640563 0.66759235 0.4861256 0.42403093 0.5916028 2.0856566 -1.2164645 -0.80029833 0.6158413 -1.0114057 -0.3448377 -0.026289044 1.1226076 -0.259945 0.68167216 -0.9683156 -2.0600436 1.1743957 -1.7142432 0.1742115 -1.7223624 0.029491238 2.0658214 -0.55482644 -1.1229535 0.44726834 -0.2615613 -0.33416697 -0.46399534 -0.7430219 0.5464044 0.7612037 -0.8943687 0.026954265 0.53660893 -0.28108793 0.50290966 1.7495766 -0.05589901 -0.7501773 0.48793548 0.76644844 -1.1205932 1.0940691 0.5945944 0.6877634 0.4026986 -0.47413525 0.0048359013 1.2743527 -0.33994472 -2.1318781 1.136474 0.8689551 -0.41193756 2.5882926 -1.2982279 0.4775961 0.20271158 0.6894341
my 0.53183043 0.5369054 -1.6060661 -0.16452852 0.27351272 -1.144607 -0.16841392 -0.2110683 2.37941 -2.0873876 -1.0105195 0.34704524 -0.72062194 -1.5849918 -0.5325914 -0.123089716 1.322662 0.097114965 -0.17450772 -1.0554407 -1.8441406 -0.8769585 -0.67109543 -0.35318026 0.26884466 1.8769592 0.3076993 0.22965752 0.38984117 0.9120917 -0.7483521 1.2908758 0.26114053 2.4637778 0.3834579 1.4383366 0.35646307 0.3596884 -1.5903476 -2.0477436 1.5783298 -0.8173663 -0.34550822 0.8329634 0.20245372 1.5347263 0.61662436 -0.44803452 0.5392584 0.19889823 -0.5454486 0.46029237 -1.3402439 0.8828118 2.1080925 0.31066465 -0.21978088 0.0082853595 -0.91163963 -0.22534662 2.9486165 -0.04815257 1.5893002 0.46603945 0.37456506 -1.6206276 -1.0713553 1.5460817 1.0023205 0.5623858 0.9646677 -0.975907 0.47017917 1.7081531 0.8801524 0.76240724 0.02312423 -0.8525607 2.0532866 0.88926166 0.79536 0.95972073 1.1896645 1.5627164 1.8572563 -0.43699574 0.82974094 0.92673934 1.3913528 0.80982906 -0.42582926 0.34633994 0.7566886 -0.32857198 1.6252564 0.7956006 -1.5363655 1.4013308 1.6910428 -1.4060968
we -0.16993178 -0.2753626 -0.3892296 1.7640675 -1.4914358 1.5498861 -0.59404576 -1.8495406 -0.97549164 0.67899126 -0.29108283 -1.5927585 0.28775826 0.36043084 -0.34450313 -1.6307279 -1.5564065 0.34896305 -1.55241 -0.06265807 0.15775716 -0.49825367 -0.7941734 -0.44112045 -0.004511244 -0.47697395 -0.83931327 0.35142028 -0.82883584 1.3807554 0.24837163 1.3497384 -0.531176 2.3830626 0.4090682 -0.03406396 -0.30647343 2.240592 0.5681112 -1.2186836 -0.024178568 -0.1362991 -0.33125994 0.4701504 0.84671795 0.29526514 -0.9944229 0.018051397 -0.13152422 -0.16645391 2.372588 -0.9414552 0.6724825 -0.49007195 -0.086674854 0.8749299 1.9492862 -0.60580075 -1.93273 -1.2650946 0.18551181 -0.828405 0.2706693 0.17755921 0.20952037 -0.3438478 -0.30625063 0.6060002 -0.53384465 -0.5933694 -1.1044674 0.67656296 0.6383777 -0.24406026 0.032903697 -0.96449757 -0.540955 0.9731231 -0.55103284 -0.15741058 0.8172557 -1.4397866 -0.6329824 1.4121513 0.6486721 -1.6049834 -0.26307023 1.210529 -0.07925896 -0.14878525 -0.5104384 0.71726644 1.7167782 -1.2592568 -0.5971412 0.5079984 1.1810441 0.007291364 0.38675252 0.8522079
your -0.21030338 -0.6012752 1.8474612 -0.1951996 1.2185935 -0.19211556 -0.58215183 -1.2032087 1.150414 -0.6949526 -0.18642311 0.041431356 1.122847 -0.27755007 0.20670201 -0.71965927 -0.27571803 0.091648445 -0.6708502 0.41745588 -0.028501712 -1.3260328 0.7456802 0.055683643 -0.011510806 0.30661127 1.0558832 -0.80259264 -0.016938936 0.9773411 0.23783197 -0.8467438 -1.6132827 -0.74677044 -0.22575733 1.6341021 1.1402636 -1.2777349 0.028198207 -0.22925076 0.43193772 0.5825137 -0.014577667 -0.3805215 1.5111669 0.41719773 2.1747997 -0.91292095 -0.36507562 -0.2155517 -0.40102652 0.3766124 1.1086836 1.8915813 1.183836 -0.19198565 -0.6465091 1.2381878 -0.15639338 -0.03639767 0.5973197 0.49641165 0.29307377 1.6139437 -0.97661614 0.80386174 -0.79690707 -1.1649712 1.7230866 1.3491219 -0.8166772 0.9298647 1.4942024 -1.0989797 -1.1403165 0.39310914 0.86341137 -0.5369031 -0.8281186 -0.43413424 -0.040397327 -0.9657692 1.839705 -0.018199235 -0.027346957 -1.0163063 -0.9066053 0.722097 -0.45750314 -2.2382221 0.08442585 1.5075974 -1.0817647 -0.75713295 0.26238742 -0.42733377 0.79677373 -1.2706745 -0.16615687 -2.4920797
there -1.1442732 -1.7009758 0.41807896 0.40060723 1.2741134 -0.5826746 1.2763277 -2.0779855 -1.4171342 -1.3219784 0.8612844 -0.02959433 -0.59070677 0.48101172 2.1157677 1.8651023 -0.20035605 0.04297217 -1.5042293 2.524255 -0.27313992 -0.056983195 0.53493893 1.6305194 0.12467095 1.0013196 0.116141394 -1.4472167 -0.8269751 -1.0329504 1.6017795 0.49521768 -0.03771584 0.3984059 0.16438362 -0.32513234 -0.26408282 -1.0566256 0.029167421 -0.9191905 0.94295484 0.309023 -0.49440134 -0.32102934 -0.7116618 0.42141074 -2.475438 -0.25845394 0.21338741 -0.11449003 1.5268928 0.49607798 0.8325693 0.5802482 -0.56877416 1.0619538 -1.5783931 1.9393232 -0.13547593 0.72090787 1.0307782 0.6875974 -2.3486676 -0.863392 -0.5233869 -1.1026678 -0.27601153 -0.29181173 -0.8850137 0.41829422 0.150009 0.7547623 1.2698833 1.2296085 -0.734091 1.0139471 -0.6051901 -0.8303018 -0.70327854 2.1789353 -1.4373986 0.5152608 1.587713 -0.89920676 -1.0124332 -0.8601811 0.46309713 3.388467 -0.07623434 -0.5411491 -0.2236376 -0.64192694 -1.3772738 -0.97503835 1.0077459 0.044578537 -1.9229269 -1.2604278 0.25037658 0.32405224
do 0.54698044 1.1963439 -1.2825415 0.540315 -0.31516752 -1.1514462 -1.5855844 0.6973946 0.39590606 0.078782514 0.8455099 -1.953864 -0.098636776 -0.98501545 -0.22816901 -1.2222146 -2.6243334 -0.40306288 1.4565319 0.15695898 -1.7371719 0.034813814 1.5661541 -0.16933167 -1.1496112 0.75564915 -0.9521509 0.7872288 0.60740715 -0.30432996 -0.16925937 2.2716877 -0.6416038 -1.0496582 -1.4312098 -0.3130681 -0.6970338 0.04926604 2.2928493 0.6901153 -0.42503732 -0.41062668 -1.6208192 -0.48353043 -0.9170922 -0.24640553 0.729985 0.36458254 -1.6146756 0.46371123 0.71771485 0.6924666 0.42877397 0.22835545 0.029159013 0.7501247 -1.413592 2.1131384 0.06761462 0.5597816 2.467255 -0.6049039 -0.23868942 -1.6512847 -0.9196814 0.70786273 -0.29424813 -0.5680152 -0.97074366 0.7074431 0.5396604 1.0477333 -1.2442584 -0.320061 0.9294844 1.2493843 0.3956718 -0.33843517 -0.25183517 1.4587686 0.01752585 -0.12652417 1.9603556 -0.65016174 0.21936202 -0.14633687 0.5812164 1.7436627 1.721969 1.2367952 -0.17952275 0.10238 -0.39488155 0.15724196 1.8863226 2.3314085 -1.0973164 0.18749468 -0.039075598 -0.65439105
at 0.23445998 -0.6907394 0.051114768 -0.04344523 0.59311104 -0.82336575 0.18083684 0.48906672 0.5922969 -0.581381 -0.059677467 -0.6351721 -0.03754559 1.8416454 0.40079394 0.48290026 3.6797242 0.14997397 -1.5830128 1.3025353 2.0228977 0.040831383 0.36823466 -1.000611 1.0480713 1.7017556 0.4137604 0.011530935 0.32436025 -0.4322991 -0.9249013 -1.0077524 -0.35154802 0.18460059 -0.16417053 -0.66807866 0.45807144 1.7925227 -0.0433321 -0.75249004 -0.765695 0.2877957 0.114357285 -0.5345407 -0.9005788 0.75411206 -2.1826649 0.88188607 -0.654114 0.84649414 -0.33464706 0.8429623 -1.4400698 -1.9310702 -1.7050836 0.22727251 -0.24391614 -0.35983336 0.5768197 0.24204563 -0.09633704 0.89889455 1.0040655 -1.7426529 -1.5738997 0.16854618 -1.9111074 -0.06971812 1.5492882 -0.43977156 1.2377532 -0.5321738 2.1816752 -0.6684995 0.58190185 0.07765221 -1.3484244 1.4844583 -1.2520728 1.0326501 0.9717839 0.04923322 0.80053073 -0.7380788 -2.4373486 -0.030384906 -0.9405234 -1.3371773 -0.7976085 0.901295 0.26954362 -0.12599055 -0.9520871 0.76669043 0.981731 0.518245 0.8818579 -0.80800664 0.9117559 0.0035632744
on -0.4372177 0.6824414 0.09423286 0.13040528 -0.24009949 -0.26895046 0.98009545 1.0262051 -0.3226786 2.5814493 0.37727422 -1.398901 1.9721406 -0.41139886 0.58779407 0.5698717 -0.60733247 1.4740945 0.2952965 1.2939674 0.7620807 0.42546043 -1.1825949 0.08184139 0.69679433 -1.0425153 -1.8683761 0.2813096 0.6269832 0.5822199 -1.33043 -0.44187894 1.1774296 -0.5179496 -0.38399038 0.996252 -1.5484753 2.2691061 -0.8936041 0.46992415 0.68486834 -1.0654957 1.2796606 -0.4158405 1.3985149 1.2068299 -0.54562 -0.07644332 0.30523998 -0.5563377 0.6289538 0.6120554 -0.3087948 -0.5616104 -0.9907117 -1.049665 0.50187755 0.446653 -1.3334053 -0.9818417 -0.0012898492 -2.2031786 0.6350602 1.5831366 -0.048631746 1.3468868 -0.55119485 -0.5984651 -1.824685 0.57762074 0.8427949 1.7615763 1.8104304 1.2858498 1.0270422 0.66230714 -1.2966962 -1.6430291 1.2826606 -1.3774612 -0.36449972 0.2700365 -0.27507192 -0.55842483 -1.4282447 -0.7658803 1.0624022 1.4557403 -0.5760067 -0.67408705 -1.4324188 -1.0963953 -0.07730573 -0.67267674 0.039385192 0.6313682 -0.5760572 1.0624719 -0.5603512 1.3452468
have -2.22038 -0.102659605 0.79554826 0.58592993 0.10462455 0.1905077 -0.121870704 -0.13138206 0.6938213 0.5510744 1.4388947 -1.3332542 -1.7805471 -1.1341902 -0.60377926 -1.2913013 1.9515618 0.047261927 0.8468301 -0.15136774 -1.4997349 -0.4315159 0.6846741 -0.7174953 -0.8913352 -0.13810113 -1.6004106 -0.7991046 0.5778082 -0.75458145 -2.2782168 -0.13481218 1.8404562 0.13526456 1.3241507 0.63143986 -1.1728594 1.5464388 -0.10734136 0.51509404 0.07405021 0.7033775 0.37707204 0.16212364 0.76370287 -0.6398812 -1.4975146 0.06568517 0.94326675 0.97901034 -0.7220667 1.2235961 -0.41230598 0.55082566 -0.92184323 1.5920793 1.3556962 -0.30962732 0.94607717 1.3243244 -1.1966219 1.3440652 0.71334875 -0.50349104 1.8336023 -0.5839181 1.6309401 1.4107748 0.7524949 -0.64146775 0.36617088 -0.11915457 0.99472535 -1.4229724 2.1219864 -0.82810766 1.3536167 -0.091744214 -0.82606137 -1.5068692 1.1597323 1.2280437 -0.1784588 -1.0992653 0.3837375 0.041369684 -1.4340351 -1.2331271 -2.017104 -0.31807575 -0.5723159 0.2037416 0.21098867 -0.016226633 -0.7127523 -0.6863485 0.4076828 0.5592981 -0.7533002 -1.1204852
go -0.42668742 -1.2554549 -1.5619341 0.83638895 -1.0797062 0.45206103 -0.50593525 0.47866803 -0.5264694 -0.27536872 -0.29862735 1.0212977 -2.3105233 1.1926271 1.3794665 -0.4729946 0.35130993 -0.13301848 1.1373236 0.4000483 2.677109 -0.9290462 -1.3834047 1.9091883 -2.5557702 1.2405949 0.4114908 -1.0248317 -0.35502675 0.04153572 0.22842497 -0.39859474 -0.976219 -1.4058462 -0.14296333 -1.3380193 0.3171642 -1.8617239 -0.9144372 -0.27628276 1.0948849 0.34115484 -0.569828 0.46193168 1.4016231 0.18309228 -1.0954051 -0.047742143 0.6185498 -1.556433 0.9791524 0.1893513 -0.6976576 -0.011003896 -2.1805475 -0.8226373 0.97527087 -0.84204334 1.2256436 0.36882746 0.7386489 1.1366885 -0.4909224 0.2604372 -1.8419316 -0.7113884 1.583735 0.61393803 0.09626319 -0.6922575 1.5472223 0.11631896 -1.7568765 -0.38429132 -0.37680775 -0.0863016 0.54633874 -1.2076881 0.10886648 -0.33643538 0.3094142 0.88595736 -0.84284043 0.22366658 0.81300026 1.2413595 -0.49519837 1.7856203 -0.008071148 -0.2823131 -0.24487463 -1.7636385 -0.38725212 -0.2048687 1.181174 -0.06678572 -1.4833932 0.7681867 -0.7003669 1.4641763
are 0.1459449 2.0291963 0.14730914 -0.4203672 0.8461633 -0.1573419 0.21983486 -2.5758967 -0.6790944 1.1844548 -0.8221221 -0.76658976 -2.4811325 -0.51169586 -0.047777873 1.9679381 0.26496187 -0.31224248 0.22860308 0.09742607 1.2708137 0.50679517 0.97539526 1.0606191 -1.1438156 -0.8814412 1.709838 1.4404742 1.3402703 0.5675432 0.4518927 -0.41072515 -1.4519544 0.7306449 -0.2838457 0.24346258 1.6134712 -2.462927 -0.060588963 1.5149539 -1.1145926 0.17763923 -0.1341545 -1.594526 -0.34365943 -0.034193072 1.290894 0.47869053 -2.2611017 0.09540462 -0.20589156 0.04145655 0.07180931 0.9462984 -0.03584478 2.3097165 0.39525628 1.5820799 1.1196933 -0.52605736 -0.49048555 -0.56167084 -0.06884106 -0.2160188 -1.1746575 -1.2442604 1.3256296 -0.9639839 0.42169034 0.5619505 -0.6452738 -1.7985481 1.4551891 1.1065212 2.7176473 -1.947275 1.3940114 -0.23443201 -0.80913043 -1.105134 1.2585155 -0.82602453 -1.0639585 0.5860023 -0.58222914 0.9549811 0.49714965 -1.5142039 -1.0451909 0.013347721 -0.5083865 1.4629443 0.63376373 -1.7123005 -1.0932173 1.4776287 -0.36012363 -0.00564986 -0.6706276 -0.15465549
's 1.3650832 0.68565774 0.23434146 0.0914201 0.25698027 0.7096382 -1.5694447 -1.3485415 0.21917099 -0.80140877 1.8106532 -1.0825496 1.7054726 -0.2510858 -0.40808755 0.9017692 0.7340591 -1.3861291 -0.3202167 -2.8820264 1.1948395 0.02313769 -2.8729925 0.99207413 -2.292347 1.131101 0.27296293 -0.17052664 -0.10284701 -0.4355843 0.87939864 0.36890683 -0.7125584 -0.74650025 -1.3012229 -2.2689319 -1.9349105 0.39733282 -0.38162753 -0.9124274 -1.8183051 0.57934844 0.06787454 -0.11719521 -0.05598129 0.3197477 1.414259 0.4218756 -0.42011082 0.14596182 -0.37013826 0.640287 -0.029040435 -0.4211895 -1.1698008 1.4350349 -0.25886458 0.5069555 0.49575162 -0.4710345 -0.11498974 1.4889544 -0.63602656 -0.3381372 0.047880415 1.463825 -0.29437932 0.10087909 0.36061195 -1.7346991 -0.36689952 0.6050042 0.6845002 -0.39797696 -0.5292299 0.4366657 -0.84934974 0.4547549 -0.4234411 -0.6756955 -0.41432768 0.97371495 -1.180296 0.17753874 -0.7100387 0.8360047 -0.6594018 1.5561194 -1.5914388 -0.23812836 -0.5892681 0.66384715 -1.1444384 -1.679478 0.42814443 1.7293056 -0.7140259 -0.45702857 -0.13030368 -0.8852725
will -0.36900452 0.28646532 0.017686239 0.2640245 0.5148832 -0.005937541 -1.3950316 -0.43972567 0.80415523 -0.8510186 1.489856 1.2824613 -0.293412 -0.5557784 1.0526816 1.3582529 -0.24987017 0.38751632 -1.1217064 0.88076615 -0.859993 -0.102040455 -0.08600187 1.472131 -0.8589976 0.6812643 -0.20262824 0.7259456 0.23996513 -1.1739691 0.97268 -0.85420126 0.64125353 0.44932878 -2.1052325 2.3211558 -1.4555013 0.9691674 -1.0433278 -0.83649844 1.5174307 -0.18668039 0.42295852 0.09607256 -0.49688014 0.054556396 -1.3769253 -1.0277758 0.95509833 1.9723986 -1.7364081 1.0965257 -0.45957577 -0.26985273 -3.5393567 0.9093222 0.65110797 -0.77035546 2.0962605 1.3454536 0.45099133 0.27702513 -0.34710795 0.28477576 0.27075496 -1.0759443 -0.92526835 -1.6023757 -0.5241918 -1.5138974 0.18769154 1.2624329 0.27022037 1.4186336 -0.36875972 -2.0827553 1.1464213 -0.41000316 -0.49821487 0.40030864 1.1098293 0.040352777 1.3474983 -0.93226093 2.811703 1.1818944 -0.21277344 -0.38230485 1.5502672 0.13164423 -0.013368071 0.32921085 -1.3759619 0.19081797 1.2245015 -0.8057252 -0.0025570258 0.16636935 -0.7463895 -2.0834355
last 0.7238861 -0.66312915 -0.4258501 -0.3489031 0.15132855 -2.0254302 0.8537996 -1.3798066 -0.033076704 -2.353924 0.944007 1.2716799 2.0870297 0.6380621 -1.7426186 1.2801043 1.0194072 -0.27795455 -1.8762467 -1.6427127 1.5364031 -0.4099852 0.6662352 -1.5731429 0.6113633 1.4598063 0.8760863 0.7049748 1.4157875 0.9964153 0.48322463 1.0112169 3.1399846 0.056446448 -1.530078 -1.4702914 -2.2054214 0.65729177 0.21414295 -0.072442316 0.65474594 1.764608 0.45076331 -1.9232941 -0.18116575 1.1546963 0.15044488 1.4592476 0.66514003 0.68116796 0.14050376 -0.54657286 -0.65357304 0.51599944 0.47587594 -0.6784598 -1.0149543 -0.30474335 -0.4375607 1.0998052 2.0603545 -0.20548558 -1.574263 1.1952404 1.9694574 1.8670343 1.2410412 -0.2713597 2.2225752 1.7751386 0.565712 -0.3760117 -1.0895307 0.10086337 0.7929402 -1.4127015 0.20768848 -0.40935433 0.446491 -0.37498486 -0.24383083 -0.34797558 0.20802857 -1.506491 1.474267 -1.015865 -0.0066325157 -1.4764744 -1.5757524 -0.86699265 -2.2361922 1.2905726 0.007743481 -0.49461776 1.4633625 -0.33471587 0.37845084 0.33736026 0.20556518 -0.17957605
had -0.8014617 1.0075644 -1.4436791 0.74423283 1.5470588 -1.6910372 0.9436234 0.054234147 -0.055218883 -0.20996372 0.14856586 -0.18602541 -0.45319733 -1.0117748 -0.21968128 0.00034037064 0.04865939 0.11040028 0.15361825 0.50873595 -1.5983634 0.7184216 -1.4206573 -0.04839388 0.39855742 1.2739131 -0.47857496 -1.7699157 0.09291529 0.20321226 -0.67194605 -1.9480946 -0.04621346 -1.9668319 1.1414347 0.023757352 1.2908742 0.4386485 -0.5214221 0.12851633 -1.0742891 -2.0788584 -1.2897661 -0.09207269 1.7544913 -0.3168469 -0.87918013 -1.1818265 -0.4338062 1.025918 -0.89792925 -0.27297565 -2.1632893 0.33009 1.4120537 0.5239967 -0.20986001 0.083307825 -0.58107585 0.8356343 0.6548974 0.08849928 -1.1934633 -0.2479866 -0.401992 0.36438182 1.797808 0.6575355 0.34352344 -0.6828441 -0.30339253 -0.98520756 -0.27305305 0.5133472 1.3432609 0.7925995 0.30618477 1.1463953 -0.7373356 0.2754575 0.03480766 1.5356783 -0.9924935 0.356539 -0.16094612 0.18388927 0.7837376 -1.1465075 -1.1743112 1.8030484 1.5932187 0.88182884 -0.72014207 -0.34385 0.22217268 0.53655046 -1.2107481 -0.23087932 0.36856404 0.9661195
like 1.1379937 2.022533 0.12405349 -1.386396 -0.87277645 0.4019984 0.062320597 0.6088531 0.867435 -0.10551604 1.3154732 -1.937956 -0.7094562 1.4366347 0.16015372 1.9013821 2.0806484 -0.17132396 0.7053372 0.51646197 0.15008552 1.0484904 2.090629 2.4610293 -0.29353586 -2.1495943 -0.016235903 -0.12062769 -1.0837631 -2.0279343 -1.047626 -0.2593098 0.19992128 -0.25883642 1.4565334 1.1496385 1.3690437 0.37067363 -0.5249715 0.6080063 1.671375 0.973906 -0.3503799 1.0367668 0.3306699 0.007183105 -1.5214444 0.088822745 -0.0005390162 -0.09485094 -0.36318144 0.49478146 -0.12818624 0.08062857 0.7850205 0.21892734 -0.7670811 -0.45914286 1.2423962 0.29369327 -0.51441264 -0.7787746 -0.24173795 0.23622397 -0.1372008 1.8610669 -0.37724918 0.049463622 0.47060287 -0.5188542 0.25315124 -1.9558223 -1.1056521 -0.46330485 -0.11171682 -1.4274188 0.4137305 0.26277396 -1.0192947 0.17659108 0.36298323 1.5039905 0.004434235 -0.70721287 -0.31150946 0.056729797 0.69784015 -2.4862227 -0.27195433 0.773577 -0.4659068 1.0356807 -0.5454785 -1.6410655 1.4210867 0.025282912 -0.5222684 -0.30167887 0.54498845 -1.0059451
up 0.19623412 1.0540354 -0.5934087 -0.3746732 0.99385893 -0.0041281823 1.2079909 -0.44427496 -1.2446575 -1.8384365 -1.3095878 1.2189142 0.7387639 -0.40614092 0.6916015 -1.071268 -0.3275687 0.5364137 -0.9363265 0.7773821 0.36155042 0.43794987 -1.7325159 -1.4647238 0.060459338 -1.5468935 -1.0165488 1.933439 0.31698593 -0.76168185 0.98316336 -0.45381272 -0.015096338 -1.2938248 -1.0784398 2.1205637 -0.6801735 0.3849317 -0.51732564 0.38747242 0.46441063 1.6482857 -0.06844098 -0.30015832 0.9106474 0.27682662 0.4156062 -0.19506446 0.41068333 -0.53407526 -0.2558473 0.7356254 -1.0101395 -0.21149024 -0.5852645 -0.77163833 1.0580258 0.74591494 -2.1048653 -0.032688208 0.92766255 -0.23061486 0.1923176 -1.2439795 1.4597989 0.16779678 -1.0112062 1.3713923 0.44539297 0.8418804 2.0092282 2.359974 0.44939178 0.18147337 -0.4445126 -0.72200686 0.6264412 -1.6557484 -0.9410127 -0.2483933 -1.9712912 0.31344083 0.33854243 0.24104851 0.55743724 -0.4855028 0.4413014 -1.2732116 0.9385012 -0.6679591 -0.3713649 0.5953982 -3.1446888 -0.9715825 -0.75459695 -0.79830766 0.28516227 -1.2731842 1.2697309 0.42756787
can -0.5663074 1.0116231 0.518967 -0.21025401 -1.3745924 -0.06348459 -0.049456336 -1.6972795 -0.84676766 -0.6974956 -0.5949885 -1.4030039 -0.7212391 0.14969613 0.50228834 0.8038671 0.7227121 -0.36575034 0.5261945 0.09540247 0.19910337 -1.6064408 -2.8516989 -0.4295552 0.24786021 1.0349498 -0.34107554 0.20775215 -2.0580797 0.35967952 -0.7432774 0.051038116 -1.9557089 -0.99182314 -0.15714589 0.2961838 1.884301 1.0855037 0.3158419 -0.39405513 0.24303354 -0.10753595 1.4171997 0.6958945 0.08045109 -1.4835478 -0.033629168 0.36191055 -0.11541642 -0.41887003 0.57299525 0.4134393 0.20930599 0.43159267 0.08488741 0.5125718 -1.444718 0.34763148 0.60037524 0.55368674 0.107327715 -0.6001563 -1.4409816 0.70771873 -0.1598279 -0.48047695 0.008696927 -2.411844 -0.674361 0.45854825 1.8517088 -0.58000004 0.5637714 0.8036092 0.25954768 -0.40577096 1.7795106 -1.3293712 -0.28194156 -0.6438378 -2.6683686 -0.04599121 -0.6151536 -0.22690725 0.15635675 -0.17172481 0.49120948 0.86796767 -1.0332502 -0.7926307 -0.37541768 0.10368974 -0.5231959 0.33036125 0.23916383 -2.4345155 0.5901045 0.32959276 0.6724134 1.9407847
him 0.39878467 -0.59647685 0.6768288 -1.717136 0.85617805 -1.5040133 0.24053632 -1.4996423 0.832665 -0.7363761 0.5864353 0.33125335 -0.043855365 0.016791642 -0.87814975 -0.6599292 0.76984197 -0.4449415 -1.1738858 -1.1629035 0.40603733 -1.585563 0.08011682 2.717878 0.68836176 2.1119685 0.3372483 1.1137986 -1.5866145 -0.46420053 -0.070653014 1.375754 -2.314641 -0.86955506 0.5289323 1.5900276 -2.9642477 0.58280903 -0.44794863 -1.8179103 2.0974565 0.092999555 0.18343426 -0.043999888 0.26592234 0.62926805 -0.9522282 0.9993883 0.4608481 -0.06641839 -1.3811693 1.28002 1.6424879 0.5795468 -0.24371429 -0.304297 1.7611805 -0.95705336 -0.23367977 0.88329506 -0.16937098 0.6179067 -0.69670534 0.89477104 0.22407307 -1.5558722 -0.3906106 -0.67554575 -0.47145212 -0.17111257 -0.40854734 -0.57423615 -1.9673722 -0.25353622 1.9475079 0.484926 1.0076963 -0.51245046 -0.86418957 0.15664321 -0.39384833 -0.9027619 1.0260471 0.11606133 0.30675936 -0.8465624 0.1911275 -0.50075746 -0.77412456 -0.102966554 0.40379497 -0.47068062 1.2669761 0.3281826 0.3065087 0.22360307 -0.9572444 1.2499738 1.2612547 -0.60942465
don 0.5889956 -0.39245135 -0.34329194 1.6333177 0.009535819 0.12830037 0.29157192 -1.7134745 0.96992666 0.44418266 -0.5998062 -1.2351646 -1.1646248 -0.33367598 1.4115475 -0.7299683 -0.8858449 -0.28856096 -0.6154178 0.9637604 -0.08663782 -0.75966036 0.769119 -0.56724477 0.02042006 -0.584055 1.2788023 -1.0886159 1.129516 -0.8556051 0.28941062 -0.12373105 1.60752 -0.22119613 0.021086222 -1.4107795 -0.43802002 0.44066104 0.42443505 -0.73042476 1.0584252 -0.19455168 0.6224582 -0.8918012 0.014092508 0.07446815 -0.42502436 -1.2590551 1.2166313 -2.3185048 -1.719773 -1.2093133 -0.82079697 -1.5082635 -0.9358583 0.7180532 0.5864309 0.78265345 1.5032722 0.08237637 -0.003478614 0.6779464 1.3246725 0.45379287 0.20387578 0.53442794 -0.98345464 0.3176679 -1.8037229 -0.9219058 -0.43788382 -1.1968772 0.016555332 -0.3055648 -1.7217939 1.5893409 0.03131578 -0.74766 0.32601196 0.2725398 -0.7348593 0.76568085 -1.6238073 -0.88030213 -0.4980629 2.7186038 -0.7429166 -0.073444486 0.4771481 0.718536 -0.40009087 -0.6001308 1.5823247 -0.4785497 -1.2157311 1.2479985 -0.7484714 -0.36666882 0.84392124 -0.75454557
they 0.93492234 -0.71862465 -0.27132586 1.1500018 -2.1070201 -1.0235356 -0.36250624 0.3860019 0.6419121 -1.8687699 0.16329128 -1.731434 1.8958712 1.3207701 0.32408485 2.210702 1.0800323 -1.2824559 -0.5604252 1.0712515 0.20450424 0.4265873 -2.685 0.6527126 -0.71942514 0.47987366 0.06567736 0.59258217 -0.18547684 -0.70885944 -0.6122222 0.7387535 -0.31849706 0.35853013 0.82770187 -1.6761048 -1.1806723 -0.11332608 -1.4696993 -0.69487745 -0.29978156 -0.69113404 0.199534 -1.118451 0.24553916 0.08952398 -0.79936033 -0.20287745 0.105987564 -0.28581846 0.26267684 1.0055437 0.13761391 -2.6038654 -1.5619516 -0.27307197 -0.87434304 -1.1107322 0.97014475 -0.66635776 -0.4944619 -1.2459583 -0.986279 -0.021705642 -0.9485153 -1.7142621 -0.4929145 -0.453501 0.26886994 -0.92845863 0.12873879 -0.22599053 -0.5310669 -0.7997105 -2.0018852 2.0352643 1.1923778 -1.4201133 -0.2783178 0.97239566 0.81466997 -0.3103592 1.1681377 -0.8802604 0.5485149 0.24156024 0.9678781 -0.66059244 0.32434005 0.39475796 0.47713622 -0.787266 -0.027920928 -0.6468552 0.09289128 -0.55831563 -2.1087465 1.5009147 1.2772808 1.220661
be -1.3291608 -1.391842 -0.67934376 -0.27485415 1.6860279 0.16625741 0.85221416 1.9865911 -0.72126377 0.48039117 -1.6676558 0.6284678 0.47664407 0.20316975 1.3228636 -1.7917123 0.026965836 -0.6202271 0.82366157 -0.46120703 -0.89082646 -0.14161538 1.7879689 -1.1019167 -0.26048237 -0.55082476 -0.5212675 0.9296323 0.0028502853 1.9359281 0.8637864 -0.02563084 1.1330149 -0.5644148 -0.84387773 0.718031 -0.10285755 1.789036 0.43032697 -0.16325985 -1.9460912 -1.0718971 -0.9085189 -0.69628465 0.9206777 0.4130864 0.56624585 -0.299464 0.44339254 0.24312374 0.20055856 1.2373165 -0.7937087 -0.24345808 0.683513 -1.0923897 -0.10085755 0.49515235 0.37373415 -0.21933508 -0.15088439 0.8212058 -1.794924 -0.6543172 1.1095904 1.5572071 -0.23673408 -1.0443058 -1.7469444 -1.6458099 -0.2618575 -0.62351435 0.7065896 -1.2434372 -1.8745334 0.62294596 -0.20651047 1.501715 0.29370096 -0.09558519 -1.3569833 -1.2342607 0.1109842 -0.48925075 -1.2473967 0.4853576 -1.6061777 -0.092498936 -1.8601637 0.58535284 -2.1679316 -1.1094872 0.5114311 -1.3430088 -0.61215526 -1.0147462 0.5840753 0.9295033 -1.6253225 -2.0862186
home -1.1249046 -0.023594968 -0.06433704 0.7684865 -1.3959585 -1.7870609 -0.19684832 -0.5233436 -1.2352971 0.8060969 -1.0537856 1.0978452 -0.017785871 -1.2425239 -0.48077106 -1.2759497 -0.6990758 -0.04721235 1.2171507 0.38500535 0.6735489 0.6367082 -0.26333675 0.4115344 -0.53833747 -1.3770667 -0.057001017 0.1823948 0.21241975 -0.1310869 1.1840264 -0.87752265 -0.5002253 -1.789478 0.2144377 0.056633737 0.07519326 -1.0895612 -0.5390386 -1.5850197 0.16203009 -1.6880537 -0.48582175 -0.7100871 0.73336166 0.24150212 -0.73931915 1.7106862 0.41375512 -0.23751754 -1.04537 -0.13752186 1.210207 3.5739832 0.25931045 -0.6288564 -0.23334323 -0.008426395 -0.25931314 0.27127865 2.5598402 1.5285726 -0.046561826 -1.1416686 0.03500866 -0.3825477 -1.8678763 1.2615441 -0.1642904 -1.5880369 0.14528291 -0.33927995 0.30173054 -1.4843003 -0.7884266 -2.0697339 -0.50172496 0.5441693 0.7202551 -0.53330517 -0.82463276 0.6800364 -0.7189592 -2.1896956 -0.47530228 1.0518374 -1.0682957 1.1668836 -0.8516558 -0.21709614 0.5032137 -0.37917203 0.554102 -1.9346904 0.033339657 -1.3221736 -0.85222626 -0.1515048 -0.6043991 0.9655865
time 0.54880273 1.1077013 -0.22712076 -0.47334254 0.34992835 -1.3819536 0.39315847 0.021945365 -0.7727785 -0.16831306 1.7687684 -0.1812776 -0.49447966 -0.27679858 -1.1304646 0.243251 -0.0966032 -1.4452736 1.1313328 0.47402743 -2.2782042 -0.6348552 0.23925874 1.8596576 -0.37734237 0.43583366 2.1873114 -0.27409935 -0.4091052 0.42449373 1.9197466 -0.5829008 0.5557047 0.15399769 -1.1239729 -0.03891823 0.07522062 2.0533655 0.15890762 1.6538646 -1.5686036 1.1991758 -0.833276 0.6362324 -0.40726557 -0.36760345 1.1501967 -1.413279 -0.17114563 1.238757 -0.07594894 0.18885995 0.9859056 -1.8662539 -1.5410649 1.9275569 0.5303513 0.50471914 0.2975917 -0.9853271 -0.6202446 1.7839547 1.0673287 0.22063369 1.5230129 -0.75228137 1.9786754 -0.3796852 2.187773 0.84394807 0.321905 -0.97757226 0.54200685 -1.6137964 1.4999452 0.31170976 -0.68011624 0.42975888 0.025169363 1.2294061 1.1882107 -0.9086448 -2.6299438 0.13511245 1.3147695 1.2762983 0.47701466 -0.5108969 1.0896603 0.4124609 -0.18754101 -0.79320884 -0.12915665 -0.9215476 -0.029134365 2.082775 1.8699287 0.34455392 0.18158218 -0.09143797
made 1.1430267 2.2501175 0.29840225 -0.34412155 -2.1171362 0.31225902 0.74512076 0.80790526 -0.46363506 0.372118 0.08168736 -0.261808 0.5820964 0.16828452 -0.8767971 -1.5344552 -0.44685656 -0.84696805 1.4808533 0.9326328 0.88345146 -0.24264584 -0.61294305 -1.4671855 0.32004264 0.17223781 -1.7873176 1.3455262 0.79190606 -0.8289303 -0.65493536 0.29301232 0.7311063 -0.17212357 -1.2972083 -1.5476947 1.6902901 0.49741745 -0.28115675 -2.0023866 0.20431235 1.1193235 0.016005667 -0.14194232 -0.3227218 1.0053362 -0.25796816 0.03441152 0.5496613 0.8347408 0.8617977 -1.6882756 -0.9135994 -1.5079691 -0.30969748 0.71248555 -0.94416356 1.0356828 -0.12539347 0.15940978 -0.08670314 1.0666252 1.1029983 -1.3452959 -0.04006674 0.8559427 0.47933245 -1.3235589 -0.1908208 0.19296844 0.2373481 2.2476652 -0.24556479 1.2408494 -0.6562645 0.66043746 -0.042794168 -2.0487587 -1.2349619 -0.83219546 0.642356 0.20019269 -1.5509156 0.48398137 0.8678849 0.53966963 -1.7069939 -0.612748 1.6390867 -1.2864792 -1.150598 -0.4343674 0.24916096 -1.2834547 0.5709895 -2.7576334 -0.93339807 -0.5032034 1.6775084 -0.02734221
get 0.23322323 1.565719 -0.3855407 1.9004737 -0.5042328 -0.25559726 -1.5942165 -1.5751376 -0.44909558 1.480013 -1.4030726 -0.02081542 -0.31943294 -1.1936502 0.4920587 0.6700336 -0.8151996 0.37962544 0.96598995 -0.07723032 0.6307339 -1.7844216 -0.16346796 -0.34697336 -0.6822287 -0.012271766 0.32393622 -0.4992044 -0.8546867 -2.0600374 -1.1214093 -1.2910656 -1.6802813 -1.0890121 -2.342419 0.21269119 -0.41319776 0.057334322 -0.061209384 0.3432297 0.19141933 0.66219366 -0.15122932 -0.78426474 0.6582876 1.0876068 -1.3330469 -1.1472492 2.0586805 0.60739297 -1.6668468 -0.6321203 0.15750983 -1.0734388 -2.1932945 0.9984824 1.0871246 0.89597857 0.7100497 -1.2225188 0.41798574 0.31149575 0.2258014 0.010241172 -0.47345933 -0.05877532 1.4638667 -0.7693152 -0.394197 -0.34375593 0.7761698 0.05819404 0.63839173 2.0752745 0.3799716 -1.072186 0.17907172 0.7596838 -0.6184732 0.81467897 0.03782848 1.915434 -1.1581831 0.05537802 -0.118378006 -1.4685991 -1.2877918 0.108797796 0.033890266 -0.5742544 0.5310892 -0.10772202 0.57786137 0.9342045 -1.2302219 1.4096718 -0.8805914 -0.099113435 1.0168042 -0.4092587
has -0.75187 -1.1090796 0.22592643 -0.68154037 -0.19523844 1.0799948 2.2189708 -0.272007 -0.9734964 -0.54592437 -0.55910754 0.36932832 -1.1638262 -0.5314381 -0.54708153 -0.63696903 -0.015509092 0.3997437 -2.130671 -1.1561 0.3605926 0.39648286 0.15304716 0.82981914 0.40947253 -0.8113335 -0.033357315 -1.8779112 1.0474852 -1.0692854 0.37806648 1.0125457 -2.7942293 0.42924488 0.5321374 0.29724777 2.6707044 -1.0869908 1.597379 0.25025025 0.47336116 0.16419858 -0.79568577 -0.7212009 -1.2351652 -0.3149835 -0.49531564 -0.49212635 -0.68810034 -1.781727 -2.1312602 0.8546448 -0.1555519 0.08797842 0.6975152 -0.42132992 0.96818477 -0.7119625 0.52414936 -2.380032 2.2421052 1.1322038 -0.056652095 -0.5404581 -1.3559513 0.1740267 1.5843567 0.31228155 0.6350025 0.04206779 -1.8144501 -0.6411712 -0.4505756 0.877243 -0.37783578 -1.279905 0.11036847 -0.71478873 0.947073 1.2242675 1.4249756 -1.0372483 -0.33767277 0.091486685 1.0612348 -0.6348234 0.84831005 0.49999636 0.026863538 -0.062167026 2.9863572 1.2283474 -1.4447328 0.0371402 0.98209786 0.4920154 0.43932945 0.1693209 0.20467967 -1.2299116
want 1.0392039 1.4545958 0.7185606 1.4000626 -1.7743524 1.6024137 0.28765464 0.5990356 -0.48893085 0.39939624 -2.1675413 -1.0448377 1.0292566 -0.16918658 2.5537512 -0.81092876 -0.9858524 -0.5385626 -0.08474122 2.0055363 -0.58620256 -0.19229767 1.9062212 -0.3384505 0.1021294 -1.9589957 -2.489679 -1.0966116 1.4542071 1.8538414 1.6578201 -0.23686768 -0.2571197 -1.7508388 1.6625633 -1.511037 0.09094299 0.16947682 -1.0031968 1.1222498 1.1415492 0.82858604 -1.8278097 0.84438074 1.240742 1.4781235 -0.1615389 -0.08104729 0.8305583 0.81284666 -0.70107937 0.53744507 1.1482353 -3.258017 -1.1090682 0.75591826 0.39057657 0.06305136 0.6748789 -0.37341926 -0.6511389 -0.61980337 -0.8062569 -0.09586836 0.17150941 -0.44081074 -0.021328758 -0.03506091 -1.176656 0.67022306 0.53247756 0.49337307 1.339127 -0.5054634 -0.89203805 -1.4312977 0.4542346 0.5431326 0.5351284 -2.369843 -0.77579427 0.97169894 1.3911303 1.0379096 1.7279861 -2.6180499 -1.1876763 0.5827102 -0.46521 0.8179526 -0.10421288 0.18401833 -1.3197758 -0.9054348 -0.06569797 -0.6645214 0.53545034 1.4585679 0.86715823 0.6335321
man 0.25102586 0.29489183 0.23226039 0.41117972 0.56253004 0.48354095 -0.14624383 -1.6525906 -0.7726227 -0.17369828 -0.11417094 2.4324512 1.2596666 0.6755805 -0.72144985 -1.5127894 -0.3751351 -1.2731711 -0.2751683 0.91004956 1.2325029 0.22713469 -0.9928218 1.6566056 1.5862737 -1.9232136 -1.2209531 -0.30977485 -0.32240683 -1.9357946 -1.0611296 0.7371933 0.039066784 0.39048004 -0.66452676 0.5498344 -0.20171255 -1.9661257 1.13924 1.4919276 -0.17183183 0.17570765 -1.0778987 0.9337236 -0.70773697 -1.4019414 -0.63272905 -0.90299845 2.361469 -1.0529906 -1.2347558 -0.023496088 -1.308802 1.521616 0.29357722 0.71192986 -1.1142777 0.4452193 -1.4874476 -1.2853321 0.22379003 -1.9690572 0.8965451 -0.5136093 -0.3264906 -0.40223083 -2.1368105 -0.33581808 -1.3404459 1.3129456 -1.2469751 -0.66386795 0.59103525 1.2068931 0.5204864 -1.6158396 -0.01913297 0.55897725 -1.1449134 -0.5116038 0.53414124 0.7211003 -0.5177931 0.35524997 1.1918733 -1.8875883 -0.3891874 1.0073535 0.34868184 0.7025683 0.18494174 0.1572437 -0.7216338 -0.7820841 0.5834188 0.65980846 0.49785087 1.4206595 0.6895176 1.3455104
how 0.31526026 1.4498457 0.6279609 -0.8191177 0.43233928 0.7846411 1.5839678 0.72436893 1.1855315 -0.758501 0.7897619 2.1690364 0.108070925 1.5068955 -0.74646014 0.7567475 -1.1482142 -1.2508405 0.5318224 -0.7561385 0.3299241 0.90548956 0.43918434 -2.5927248 1.0763527 0.8963441 -1.1058097 0.35544792 -0.6470651 -1.4607795 1.0333872 -0.5295958 -1.2426558 0.36315602 -0.22753263 -0.5639961 -0.12116446 0.22575076 0.85956067 -0.38867208 0.2740695 0.7156707 -0.078532055 0.04142594 -0.28167474 0.2958738 -1.3590595 0.7004211 -1.3676536 1.2052693 -0.7118949 -0.0037759556 -1.1727526 0.5005932 -0.87340647 0.81903076 1.927427 1.3576969 -0.97609025 -0.51841646 0.7015674 0.8703357 0.82664937 0.028796196 0.07250914 -1.1056095 -1.6244575 0.5049876 1.0808165 -0.1653047 1.5990684 -2.0082114 0.40920833 0.2751141 1.3086257 0.85788614 2.0101733 2.0026274 -0.7265679 -1.2631803 -0.2651935 0.046708476 0.35911712 0.5768129 0.94136816 0.45641693 -0.8525885 1.0042263 0.8924853 0.36479193 0.9874417 0.83161247 0.8463198 -0.10982901 -0.02904031 -1.0150316 -0.012601714 0.66752386 -0.16866344 0.8492606
'll -0.050761227 -0.5849386 -1.2788014 0.57735234 0.19839375 -2.0169938 0.25997093 0.35275888 -1.8627739 -0.9463952 0.5153206 0.5594164 1.7533005 -0.034346722 1.8330677 -0.80625296 1.4903659 1.3293445 -0.43683115 -0.11328897 1.5408059 -0.52560556 -0.74936783 -1.4894066 -0.84427494 -0.2956721 -1.2664548 0.56148607 -0.46322134 -0.9306367 0.36071265 -0.77628285 -2.6903956 0.07915328 0.18580094 -1.0413983 1.3244104 0.241989 0.28509128 -2.3170717 -0.6004473 -0.0051034084 -0.79248714 -0.19707888 -1.6439432 1.0021739 0.07147492 -1.9664016 -1.1389829 -0.66169083 -0.2816437 1.3582232 -0.032475322 -0.31661487 1.2994304 0.9872566 1.80709 -0.3563884 -0.28450942 -2.0845942 -1.1113932 -0.4956595 -0.69765896 -2.1910367 -0.0078022936 -0.55297685 0.34400514 0.55891675 0.6031502 -1.0525492 -1.4340758 -0.25867736 -1.975027 1.3698962 0.9762126 1.09735 -0.4586174 0.042420227 -0.58848035 0.118453525 0.8030482 0.20355357 0.116265506 -0.80607057 1.0017184 -1.9338987 -0.19961564 -0.59070057 0.5840332 0.26026276 -1.4552151 -0.67980886 -0.48657918 -1.4871049 0.3102539 -0.3582762 0.2862696 0.13070807 -0.14032614 0.21725945
what 1.0758265 -1.8121574 0.5913247 -0.3667856 0.4937027 0.35282975 0.26602453 -0.8830451 -1.2879514 -0.29342738 0.0801355 -0.4136824 0.111819096 0.61389005 -0.03383771 0.3061579 1.7418897 -1.1037017 -0.28314352 1.4583884 -1.0320066 -0.5383848 0.72137433 0.59433883 -2.0525153 1.6702995 0.20358746 0.8685637 -0.20519042 1.1282219 0.16094494 0.7738441 -0.49710172 -0.1586275 -0.8708143 -1.4496033 0.2331133 -0.7635063 0.7417282 -1.1803089 -0.91047263 -0.96683294 -1.2017194 0.3152433 0.74155545 0.052572343 1.3859888 -0.6088325 -1.5407757 0.38416 -1.0254508 -0.37305993 -1.1737093 -0.007932268 -0.92352104 -0.58881843 -0.062151752 -1.2156675 1.3009259 1.6083317 0.02884585 1.2576388 -0.68850404 -1.6158974 -0.5113001 -0.61332625 -0.54576916 0.54764616 0.032555893 0.39842284 2.2625647 1.1222878 0.6261972 1.3241459 0.45157522 0.5823164 0.65889215 -1.3284736 0.81857497 0.11987561 1.7924572 0.024385719 0.13581881 -1.4900895 -0.4178309 1.2691367 -1.8323301 0.1808447 1.2216362 1.2205696 -0.34168515 0.9264633 0.85605776 -0.528876 -0.6570236 -1.4546522 0.3617058 0.91231 -1.1430614 -0.934154
if 0.5253042 1.4382136 0.9404262 1.3699456 1.855355 1.0733402 -0.261479 -0.28232312 0.5002772 -1.1115764 0.26837423 -0.9302787 0.3368351 0.14655642 -0.2652796 1.1724802 0.006629857 0.5636672 0.567174 1.9772646 -0.08173974 0.37152654 0.7543608 0.009882064 0.52123666 -1.2522813 -0.7108052 -0.3189112 1.0081056 -0.42480478 -1.012528 -1.6343865 -0.06584742 -0.35164306 -1.3233956 0.10034284 -0.90143514 -0.010952577 0.9739393 -1.1439983 -0.28742236 -0.89929515 -0.28677464 0.19482517 1.6788092 1.1942158 0.45003438 0.38108015 -1.0243123 -0.07017715 -0.5982087 2.8268259 1.5747249 -0.22421603 0.39955845 0.50168777 -0.3720039 0.26794633 -0.79808944 0.9330987 -1.1276634 -1.1178566 -0.39281115 -1.3619273 1.1723783 -0.9574596 0.309535 0.33880833 -1.7869104 0.4763093 0.9792607 -0.05998665 -0.07433278 0.71153694 0.6491307 -0.20453595 0.16200845 -0.18250701 -0.8489268 -0.12869659 -1.4554093 -1.6156756 0.6579783 0.11019337 1.3180181 -1.0202236 -0.69404835 -0.26998883 -0.15761991 -0.18645412 -0.9409046 0.9477835 0.08357085 -0.5554831 -1.2449526 1.4359205 -1.6895784 0.7737233 1.6473812 -1.2930835
no -1.7095764 0.82262695 -0.009495347 -0.13353533 -1.171065 -1.9766392 -0.45293644 -1.4647915 0.47230357 0.88876915 -0.9988964 1.8909042 -0.6464878 1.0666966 -0.43577507 0.25952375 -2.9876351 0.28806365 -0.5033525 -1.0866842 -0.37719804 -1.9954295 -1.7855092 -1.4115876 -0.15976843 0.23414929 -0.88914865 0.8418421 0.48051068 1.2964853 -0.6527897 -0.09420455 0.4747916 -1.077814 -1.3174154 -0.53038245 -0.9036112 0.43363187 0.44313017 -0.725117 -1.2835531 -0.24838755 -0.7227787 -0.6099256 1.6708442 -0.2734954 0.8762814 -1.2377898 -0.96906906 1.0321358 0.1753116 0.6986475 1.7916662 0.43827823 -2.450887 -1.3534074 -0.1800242 -0.14585665 -0.5815062 0.5888657 1.3108495 -0.12626442 0.9717494 3.5479815 0.63052523 1.1607226 -0.9790851 0.21582505 -0.7349726 1.3814076 0.14073163 0.4915327 0.100830995 -0.9304884 -0.8208419 -1.0974352 0.07928698 -0.35352826 -0.9510314 0.2592413 -2.050718 0.56582093 0.6143127 1.5585933 -0.91722536 0.41356823 -0.76998633 2.0046866 -1.0066154 0.4549277 -0.9336065 0.3753531 1.5194069 -0.6948729 -0.24554218 0.7023707 0.21806541 -0.49379182 -0.47281003 -1.1177961
please -0.0851997 -1.2963569 0.6315722 0.06410084 0.2468252 -2.3163567 -0.5153131 0.34743267 0.949909 -0.6051729 1.2059333 0.9915354 -1.6244196 -0.31645244 -0.31933448 -0.33120093 -0.43613237 -0.86044145 0.51654154 0.67809093 -1.3316026 -0.46706992 0.004639445 0.04759608 -1.8799818 -1.7119662 -0.8418356 1.0245608 0.25875792 0.62827975 0.5715178 0.7906451 -0.5800106 -1.296607 0.4662227 -0.077268116 0.88533837 -0.37425444 -0.9102892 0.2553814 -0.281965 2.8801448 2.519633 0.47430462 1.0043149 0.32370833 1.2877469 0.58215433 -0.22538461 1.923484 1.0539845 -1.2636642 0.97125727 0.014990865 0.23448803 -1.1410636 -0.031102361 -0.5947004 -0.80307204 -0.04984888 -0.02192469 0.38885134 1.3201675 -0.1615747 -0.49638945 0.7303945 -0.68274504 0.3775762 0.08592489 1.4052922 0.8662634 0.3464021 0.8949757 0.21027848 -1.1451118 0.998008 0.697903 -0.4577512 1.1402243 -0.90797883 -1.2687376 0.84180814 0.719308 1.3550429 -0.5073663 -0.6591385 0.7114863 -0.5620366 0.46092394 0.84071463 -0.44741127 0.31306037 -1.3170509 -0.13834074 1.2117255 1.1264831 -0.94593066 1.2575754 0.060069226 1.3829641
an -0.08572379 1.6335764 1.5820141 -1.3892668 -0.9064592 1.2917156 0.3401298 -0.48687476 1.7662822 -0.30095115 1.1710012 -1.9163214 1.7136048 -0.6121668 1.2403187 0.6926322 -0.81382316 1.7516228 -1.3600856 0.89991313 0.09413392 -0.84015334 1.1589999 -0.14408463 -1.382667 1.5462266 0.8179544 1.1117598 -0.17272283 0.3923422 0.57635117 -1.0708729 0.6492814 0.025789393 0.3121609 -0.3795233 -1.1853104 0.55738777 0.18955971 1.0823439 -0.3952334 -1.2722642 0.96568733 -0.77178913 1.2368699 -0.45184335 -2.0127563 0.057685297 0.81656516 -0.6768335 -1.1269969 1.0960373 0.77025443 -0.67709285 1.0032848 -1.2138025 -2.055455 -1.3627502 0.17025873 -1.0137928 -0.49190244 0.6579815 -0.28702033 -0.15027478 0.9872683 -0.6204996 1.1127644 1.0245088 0.8936667 2.967772 0.047858454 0.576791 -0.5086812 -1.1213812 -2.4476137 0.86854446 -1.5941731 -0.3442518 -0.36427838 1.6246537 -0.48325327 -0.41408527 0.6572683 -0.52544034 1.8689115 0.07887364 0.28527904 -0.5886666 0.44213685 -1.6451797 -1.063776 0.9291897 -0.26134914 1.2886996 -0.97143626 -0.26951748 0.40242922 0.69879407 -0.26928866 1.12485
very -0.5311743 0.5462577 0.5504084 -0.8717015 0.53853714 -0.8552218 1.2101914 0.8939629 -0.66685843 -2.9159348 2.0053205 0.6135351 -1.3255095 -0.10873227 -0.49956235 -0.9376446 0.06915395 1.3390217 -0.7771812 -1.820292 1.021517 -1.2265005 0.19247329 0.50036895 -1.002148 0.05014114 -1.3894446 -0.39201578 1.1114223 1.347493 -0.010706911 1.1784724 0.030357776 0.29341114 -0.6302787 0.7608672 -1.3603718 0.04056494 -1.2024114 -0.8066333 0.4596636 0.7865337 -0.07986732 1.3437461 -0.8292776 1.0714259 -2.3934362 1.3923919 -0.03982176 0.7705386 -2.4025326 0.39783365 0.9679666 0.14561595 1.0208539 -0.9586509 1.1378901 0.08279741 -0.13642733 -1.6417348 1.4346027 0.10648813 2.3732846 0.43493646 0.78138626 -1.4927406 0.44507053 0.5705693 2.1000552 0.84795773 -1.0497739 -0.69490904 -1.3353249 1.2518789 -1.4858725 -0.7614383 1.1425653 -0.12102203 2.4117136 -1.358854 -1.7222066 -1.3059384 0.6055332 -0.33445874 -1.3030695 -0.059292145 -0.83729947 1.2995241 1.5620675 0.4267455 -0.0066647097 -0.15071109 -0.135046 -0.5114369 -0.46554965 1.2572459 -0.6153632 0.8000897 -0.122089 2.547741
when 0.57795894 -0.9703688 0.22741674 -0.4452002 -0.25213224 -2.083685 1.3658547 -0.7597058 -1.5524851 0.67143494 0.97574556 -0.55235285 -0.19338837 1.100472 -1.5157841 0.09613509 0.27425846 0.46559602 0.2767563 2.8285768 2.0022905 -1.4327294 -0.21047881 0.3450037 -0.28881016 0.5275049 -1.2430466 1.9089478 -1.7215389 -0.11787577 -1.2611284 2.0337274 -1.6848409 0.36319292 0.01750813 -1.2028089 -0.9465233 -1.0304538 1.87645 -0.2646489 -0.3966765 0.088971645 1.0439224 -0.9531863 2.093416 0.11041667 1.3419375 -2.3611584 1.8537939 -0.14690326 1.0003129 -1.330262 0.20270921 0.3603343 0.13606688 1.4861261 0.8333931 -0.17382224 -1.162679 -2.4453423 -0.8732691 0.84093875 0.11357956 0.5078529 -2.455658 -0.25847113 0.8881908 0.4150688 0.32576448 0.2856806 -0.1292848 -1.8063394 -0.95938385 -0.00055029104 -0.40838984 -0.9055332 -1.1237302 0.6020506 0.9384982 0.16031156 1.716142 0.7029368 0.782321 0.7110548 0.298905 0.7016719 -0.6432334 -0.35861322 0.307199 -0.8800101 0.8577011 1.7546356 -0.200593 -0.07850779 0.5686754 -0.40749654 1.7399553 0.88516647 -0.0148662515 0.6632075
all -1.0572989 1.710636 1.7809813 1.9103143 0.6710022 -0.3689274 -1.2886182 0.31791684 -0.6770641 -1.7546091 0.8274249 0.7444853 -1.5710169 1.639399 -0.18875144 0.6323363 -0.07742105 -0.40319273 -0.42370594 0.26638314 -0.8853151 -0.25768265 0.606339 -0.7000023 -1.8698723 -0.095976226 -0.1872706 0.5273816 -1.774295 -1.2802458 -0.4983845 -0.2833045 0.09814055 0.90928227 -1.0613673 0.4054752 0.74689853 -0.91802377 -0.06671977 1.2168533 1.2024149 0.97154874 0.21000102 0.20267376 -2.228725 -1.3619094 0.29149216 1.2768388 0.20741896 -0.16868412 2.4378538 0.43294612 0.117053755 0.5946686 0.623296 -0.8628026 -0.0006336256 -0.4076362 -0.026255634 0.18630108 -0.498775 1.520839 0.44361475 -1.6181316 0.4270301 -0.041560937 -0.17022978 0.30145898 -0.3559829 -0.013551433 1.9189265 -1.1469878 0.060130537 -0.15176283 -0.74060875 1.3468546 0.33576584 -1.2079784 0.53995717 -0.99679404 1.7929118 0.7969952 1.0833322 1.1622723 0.50539494 1.003372 -0.07008239 1.3252965 1.4841167 1.3519498 0.7267238 0.03485827 1.2866735 -1.4156293 -0.934724 -1.1667683 -0.59059966 0.53236085 -0.8774256 -1.2958121
out 0.7284277 -0.22755781 1.496931 0.910513 0.0894708 0.25777003 -1.5962573 0.11346301 -1.1530259 -1.2050899 0.5186518 0.761331 0.5862479 0.51542884 0.19535479 -1.5717316 1.519746 0.15654774 -0.11197751 -0.8014201 0.2960749 2.299008 1.1099565 -0.9536585 -0.74498385 -0.07219699 0.7656844 -0.42890912 -0.029457485 -0.040921967 0.5084103 -0.46104625 0.08303012 -0.28785193 -0.5504409 0.23240119 -1.0930815 -0.57763255 -0.43284464 -0.3787325 1.0735707 -0.08669545 0.34397304 0.040241145 1.1888162 -0.46659532 0.7136588 -0.4647276 0.63468355 -0.24281326 -0.5516297 -0.5744521 0.86831856 1.2917387 0.71815413 -2.6126735 0.10087308 -1.2282925 -0.34213632 -0.42839694 -0.26437807 1.1770972 -1.1033275 0.81703895 1.3839338 0.07631014 -0.17614509 -0.99225587 -0.41138735 -1.1246926 -1.3102663 -2.6266024 0.9128315 0.9512844 1.0010521 0.7410797 0.8691104 -1.7752342 -0.9964304 -1.0486195 -0.56821704 -0.72892135 -1.2895918 -1.6958685 0.056678932 -0.45067373 0.9123114 -2.232313 0.6562264 -0.60495484 -0.10909612 -1.1434143 2.2286315 1.5160732 -0.046886496 0.49196324 0.17488642 -1.4503125 0.13583118 -0.021392405
and 0.32473966 -0.8715307 -0.25505838 0.8853022 1.1795624 1.6328204 -0.47350878 -0.5244523 -0.4165817 -0.585828 0.204939 -0.853554 1.0644414 -1.460423 -0.1964416 1.7405249 0.15038459 -0.22064394 -0.58014214 -0.2043465 0.89268625 -0.972791 -0.4145942 0.854369 -1.4050051 -0.55457634 -1.9747471 -2.0651162 0.60177374 -0.41391474 0.07328841 1.032234 0.4597165 0.90897053 -0.804093 0.4964073 -0.5755433 0.32265523 0.45153123 0.5357698 1.3527021 0.5618738 -0.8397418 1.1726526 -0.6831031 1.3793367 1.2492502 -0.49015746 1.2886438 1.3185909 -1.4356313 -1.818674 -0.08768496 0.022957165 -0.27005765 -0.21512464 0.58689684 0.0024452482 0.018549558 0.191693 -1.4832853 0.19559893 -0.85751116 1.9795089 -1.2583636 -0.75670224 0.9193833 1.1115793 -0.9016383 -1.4368907 -0.9369673 -0.91884995 0.684214 0.036147654 0.31342554 -0.49786645 -1.597698 0.37707597 0.6789662 1.0168695 0.07578882 -0.89836943 -1.4412268 0.14150767 0.11843025 0.2800871 -0.4626804 -0.9474405 -0.9843685 0.70397097 -0.7992489 -0.14131844 0.43346113 0.27656907 -0.018814525 0.8406277 -0.60316956 -0.3879903 -0.7105803 -0.22974421
than -0.5379024 -0.35915083 0.5480638 -0.21658741 0.7705738 -1.7546557 -1.3435786 1.4901365 0.5324459 1.6460644 0.60373294 1.3983717 -0.01239841 0.5136828 0.5373331 -1.040524 -0.87849444 -0.041811127 -1.3926122 0.15551792 -0.46394554 0.6684691 0.5737582 -1.3667456 0.36040726 1.157789 -0.41369593 -1.5696737 -1.278689 0.23908901 1.1002544 0.3863573 1.2515867 -1.7058839 -0.146682 -0.11500167 0.46332875 -0.88853765 0.52678233 0.60000646 0.33392462 0.6252108 1.4163288 -0.081010975 -1.8601377 -0.8910767 0.37702686 -0.113509804 -0.4174345 0.056980565 -0.25495088 -1.3475448 -0.924843 -1.1068848 0.4801666 -0.559247 -0.039032526 -0.043699298 -0.053267907 -0.9083669 0.21377654 0.65218395 1.712253 0.73203295 -1.0355442 -1.5011189 -2.1656747 1.4663361 -0.17665194 -0.2180784 0.93309796 -0.21814474 -1.8147016 0.42208314 0.18359841 0.52717453 -0.5970353 0.6807909 -0.44710386 2.1930795 -0.84476775 -0.4439479 -0.17983602 -0.35492107 -0.2847751 0.036808137 -0.7305159 0.32296312 -0.18024488 2.2087789 0.21731517 0.6428422 -1.1413898 -0.24817976 -0.54023355 -1.7677097 -0.937535 -1.4360442 -0.8123711 -0.7250826
put -1.2729101 -1.3064774 -0.77293414 0.54326975 -0.21715418 2.5829623 -1.5477265 0.34690803 -0.9853083 1.5638995 0.338105 -0.13688864 0.39496452 -1.1635417 -0.054624237 0.051568862 -0.63422924 0.6134898 0.44267273 1.2692243 0.9618664 -1.9120579 1.2536422 -0.16756175 -0.6635044 -0.72621715 -0.8326289 -0.3479485 -1.1998258 1.0352383 -0.5394942 -1.1108098 -0.7375277 2.7911203 -0.7679633 -1.2107807 -0.33888447 -0.35191783 0.5475283 0.43150172 -1.0698423 -0.61245203 -2.1774218 -0.9232962 -0.7694676 -1.4563978 0.3176312 0.21796994 0.87034035 0.21253052 -0.3469519 0.14462253 0.8257557 -0.35842812 0.08825535 -1.0321153 -0.785213 0.023479206 1.3361744 -0.45822433 -0.15036443 -1.6530831 -0.07066274 -0.31567457 0.11696934 0.62518454 -0.984153 1.0501658 0.42981815 -0.35607985 0.95708424 -1.1807829 -0.16169134 2.1758966 -0.6261943 0.1712387 -0.9488356 -1.5828022 0.5768776 0.2516793 -0.31979316 -0.08835254 -0.3380133 0.067359716 -0.38804212 1.52497 -0.4944126 1.5782788 0.27357644 1.1550514 0.40923768 -1.4070251 1.464915 0.6075059 -0.6667153 -0.0591433 -0.25351372 0.43310556 0.7994027 -1.4952041
long -0.716295 0.72993803 -0.92363644 -1.146617 -0.41817147 0.7206135 0.5471314 0.41271362 -2.2525427 0.36529464 -0.93829036 2.9114397 -1.1124412 -2.0408778 -1.1682986 -0.18522967 -2.0470583 0.63460994 -0.3176685 -1.2051592 -0.28727552 -0.3126816 1.4734908 -0.19499508 -2.0208085 -1.0266371 1.7147496 1.1707332 -0.64770555 -0.0898428 0.61370087 0.09385924 0.25994074 -0.8271029 -0.5296486 0.48851505 0.7924344 -1.791849 -1.0889477 -2.8390472 0.13916162 0.7237292 1.1825674 -0.43305865 -2.6996994 0.38311628 0.22333926 -0.9479173 0.24941444 -1.6755277 0.03128793 -0.55920595 0.9222006 -0.4805509 -0.26430273 0.90082115 1.1889467 -0.29451567 -0.024104726 0.4394673 1.7595158 0.01403561 0.5291467 1.1717664 0.12811811 -0.9071188 0.543866 0.8407552 1.1222243 0.2969116 -0.27375567 -1.0122129 0.3802691 -0.37367144 0.85560465 -0.89318925 1.0565389 0.47486016 -1.3715754 -2.2809045 -0.09056576 1.2040579 -0.052912164 -2.3692482 -1.2066461 1.0523291 0.22875692 1.8998271 -0.9673274 0.5360684 -0.17940743 -0.446851 1.7107583 0.6681561 0.5984886 -1.1700842 1.5693909 -0.12171539 0.8280542 -0.5479782
by 0.42052945 -0.7589856 0.0707437 0.33034882 -0.059049644 0.42321587 0.41464356 -0.1526769 -0.33018306 -1.9565849 0.34010202 0.14987387 0.28410444 0.6294873 1.1121426 0.8318839 0.8749576 0.4306105 -0.41237822 0.08685485 -0.15854083 -1.0522152 -0.07061378 -0.45646977 -1.2548249 -0.6345758 1.1906912 -2.3169835 -0.019083297 -1.1818163 2.7759771 0.30812195 -0.19753273 0.053857602 -0.89589 -0.2518438 -0.70348066 0.78589123 0.2342683 0.9606517 -0.3930181 -0.1651125 -0.6698899 -0.021331128 0.69846034 -1.4635824 0.49178717 1.5573826 -0.7423563 1.2084867 -0.36529845 -0.4343285 0.07397153 1.0517441 1.3136543 -0.28903154 1.7816024 1.2042533 1.012451 1.0371153 -0.4600692 -1.2717739 -0.5250736 -0.4511766 1.064169 0.78779817 -0.9263393 1.3616982 -0.9807078 1.6231 -0.680674 -2.183265 1.004185 -1.5013252 1.411991 -0.9270068 -1.4322534 1.6448376 -0.87660116 1.7449057 1.2487748 0.2559717 -0.68569463 0.03777169 -1.0394807 -0.08265099 1.6900353 -0.6376473 -0.111828834 1.0601469 -0.34598795 0.7826608 -0.112119995 1.9319236 0.47562113 -1.2736114 -1.0731003 0.6517803 -0.29743654 0.596203
help -1.0948108 1.6154623 0.9408972 1.1445452 1.0150181 0.8981439 1.6101534 0.2095243 -1.3644003 -1.2374756 -0.11819786 0.8519466 -0.3409071 -0.31405216 -0.34156716 -0.2773403 -0.9179479 0.29742137 -0.3623607 -0.50895214 1.132732 1.2535743 -0.4447839 -0.4737452 0.78559273 -2.2519126 0.7267011 -0.6713442 -0.8978665 -2.2343109 0.2872053 0.34201023 -0.132608 0.38296193 -0.7724029 1.3044664 0.33146846 -1.5561999 -0.867888 0.18020675 1.6651872 0.26148033 -0.73217136 -0.028816184 -0.15745437 0.13411461 2.0081654 0.10297233 0.9683926 1.3607312 1.487372 0.5988607 0.17239012 1.2077808 -0.50072384 0.85546535 -1.2032441 -0.8783063 0.6435793 -2.2040896 -2.0431309 1.298072 1.9427907 0.90873045 1.8338852 -0.1539021 0.08848038 -1.5430508 1.2780099 -0.3483065 1.682576 -0.96470964 -0.78003013 -0.57905483 1.1628813 0.49586156 -1.1629964 -0.27853888 1.8499893 -0.46393082 -0.37117034 1.3883333 0.28101557 1.3464729 0.81598186 0.5567657 -1.8102334 1.6248821 -1.9941599 0.7121201 -0.46898028 1.1076424 0.8280512 -1.9367144 -0.7767938 0.9113473 0.439234 -0.80143416 0.6592893 1.0508717
from -0.7909678 0.20864369 1.4726505 0.8452121 0.57039356 -0.27560392 0.8180706 0.16873495 0.31794745 -0.08469097 -1.4755541 0.022953516 0.70989734 1.1106228 -0.45254916 -0.4718269 0.8880808 0.51219916 -0.44380194 -0.58050084 0.81724906 -0.73088497 0.1300058 -1.7840583 1.4812758 0.046504516 -0.025200456 0.15941863 -0.7250427 0.7674607 0.6135137 -0.37301973 1.289097 -0.9089648 1.0445276 -0.10455539 2.3472664 0.97081894 0.2510014 0.18295461 -1.0196712 0.15194747 -0.40104705 1.1477214 -0.7906933 -1.0561342 0.3147154 -0.478757 0.7179549 -0.6422505 0.3104062 -0.01780639 -0.9833254 -0.8499752 -0.4675597 1.44211 -2.3465207 0.24233909 1.8030351 -0.69236165 -0.6645575 1.2483313 0.5782799 -0.30688292 0.1910976 0.951212 -0.69996434 0.9325074 0.05732278 0.00942856 -1.1378145 -1.2176644 0.17104968 -0.6299935 0.8857421 -1.9028345 0.4005305 1.7638061 -0.13210219 -1.3763627 0.022266787 1.4066787 0.8262203 -1.236085 0.2884279 0.39508805 0.2588304 0.30461144 0.39527202 0.34517518 -0.5596172 -1.1126939 1.1213689 1.0579859 -1.4848722 1.1084365 -1.4506272 -1.9928122 0.24270338 -0.29356
where 1.0270207 1.3748448 -0.8923581 0.6108586 0.22903073 0.49173194 0.43610337 -0.60409975 -0.22122748 -1.2547739 -0.32652247 -1.260367 -1.528698 -0.2906616 -0.5582769 -0.9267968 -0.83577603 -0.26119682 -0.66588426 1.3328578 -0.6969365 1.4745141 0.4892344 0.17242303 -0.4015388 0.35966915 0.4655785 -1.6650369 0.42812192 -2.6392405 -0.098578036 -1.0765826 0.52797633 0.16778055 1.8897843 -2.0424883 -0.7693794 0.4824136 -0.40331793 1.1818246 -1.5910892 -0.30799553 0.4660967 -0.64795756 0.07567082 1.0286529 -0.41555572 0.92716664 -0.5587462 1.3634369 0.28838146 0.25301558 -0.5760356 1.455453 0.115834296 -0.5463783 2.140674 -0.38035983 0.10886429 -0.061375733 -0.06406382 1.7145174 -1.0615729 1.3939071 -1.3673733 -0.4790922 -0.8652172 -0.90920424 -2.2213519 2.5143774 -0.42906132 -1.7180483 -0.5876864 -0.91908574 1.3493735 -0.97584736 -1.4887661 2.1847079 -0.790786 -2.2439692 0.33097896 -0.85101175 -0.5892948 -0.41097116 0.35710755 1.8317736 -0.48904753 0.102904454 -0.039082292 0.39145255 0.50893223 1.8666345 -0.97227025 -0.044722266 -0.7402471 -0.30085197 -0.62046593 -1.6604526 -0.3151149 -0.688758
did 0.4243703 0.03240517 -0.032200716 -0.4390136 -1.8566678 1.5335747 0.6671116 -1.5493188 1.7979559 -0.2777122 -0.5952413 0.28413406 -0.60182536 0.010980436 -0.160909 0.83318835 0.25670242 0.41155097 0.8397404 -0.73276985 -0.2983149 -0.9607484 -1.9569213 0.8024227 -1.1888853 0.041987 0.0076752184 1.1814874 -0.4552891 -0.62225056 -0.86555207 -0.3359913 0.09470661 0.5495943 0.13125838 -0.23025456 -0.655002 0.8594335 -0.026744636 1.0288447 -0.52367336 0.17744194 -0.21313456 1.9842111 0.015307988 1.0956376 0.124311574 0.008120959 -0.32694376 -0.7530558 0.08686731 -1.7965754 -1.4243779 -0.8875669 -0.6804053 0.18981071 1.0285174 -1.7063557 0.7024714 -0.12061833 -0.11873429 0.08704538 -0.9554835 2.5252538 -1.0911932 0.8501664 -0.48950398 1.9471985 0.5680371 -1.096888 0.04441899 -0.086837895 -1.4760102 0.6973544 0.1706155 0.22219358 -1.0298936 0.2102562 0.5074922 -0.76084644 -0.8065281 1.3983622 0.46518418 -0.27767396 1.2185465 -1.2372133 -2.1843207 0.45761266 1.4283396 -0.2890062 0.41599408 0.40143153 0.074418955 0.5725519 -1.7459916 -1.2837648 -0.18297935 0.79990107 -2.1171598 1.293782
got -0.81352496 -1.3952161 -0.69863516 0.26683712 -0.9969868 1.8653632 1.3087246 0.71246856 -0.4980024 -0.25323555 -1.1256894 -0.9040393 1.2021475 -0.52961886 0.7236973 0.47916025 0.5152205 -0.2903736 1.6204586 0.55455863 0.43930292 -2.5209599 0.23946664 0.6268282 -1.5540191 0.5344475 -1.037388 1.0023215 -2.1411288 0.2631358 -1.0642891 -0.46428433 2.0115285 2.1397324 -0.593021 -0.21680877 -0.53756267 0.9472795 -1.4976737 0.18082896 1.1857269 2.21936 -0.9394491 0.9303332 -1.1869869 0.471603 -0.60417455 1.2178692 -0.36660033 -0.58771294 0.7592647 0.4254072 0.020145569 -1.1704391 -1.7344371 -1.3818281 0.062911786 0.8049063 -1.2442944 0.60370827 -1.0690161 0.016569316 1.945128 -2.2784164 1.4692495 -0.18990658 -0.33866417 -2.1011078 -0.1256138 -1.3683176 0.06674406 -1.413811 -0.26033854 -0.88989365 0.3668596 -1.2693546 -0.56541765 -1.7583394 0.34650704 -0.87905157 -1.6529285 0.79498637 -0.85735804 -0.09485778 1.9525461 -0.13540386 -0.11241503 1.7870735 -0.57881963 0.21059224 1.9172319 1.3461878 0.08785623 0.7123144 0.31152102 -0.27204895 -0.32740706 -0.4587051 1.194907 -0.014255275
here -0.73184264 -1.0035373 -1.6528553 -0.4785034 0.69991446 -1.8780055 0.2701554 -1.4362117 1.172707 -1.4487538 -0.92275006 0.17915717 -1.1349437 0.936268 0.8349869 0.5771859 1.4563347 1.2016071 1.5396445 0.39846522 -0.022611246 -0.81844294 0.052478913 0.24529159 -1.1338053 0.5047258 0.84800696 -0.5044987 -0.31375837 -0.43423703 -0.8979765 1.8498652 -2.1357024 -0.19784336 -1.4404786 -1.2773253 0.37533608 0.009779162 -1.6456575 -1.1128958 1.5446658 0.5178127 -1.816902 1.0068144 1.5190707 0.7262233 1.9010772 0.965664 0.57060504 1.6790365 -0.8326586 0.08551965 0.66050106 0.9621415 -1.3220443 0.42603102 1.3557129 0.24988696 0.5495689 -1.1111531 0.57480544 -1.3222502 1.1601868 0.41552427 0.87801874 -0.91528326 0.27691546 0.8111935 1.2201765 1.1590927 -0.44025138 0.30387545 -1.4890993 0.53150266 -0.7376231 -0.22415161 -0.57016486 -1.7660455 0.27308923 -2.1566205 -2.3132985 -1.3251851 0.3854062 1.1401312 -1.6696508 1.109195 0.6256862 -0.27020833 0.8135868 -0.8732821 2.373939 -0.11251004 0.6061808 -0.13827142 1.0953157 -0.6320204 0.15151048 0.78900313 0.030581584 0.026018323
should 0.77378434 2.380872 -0.07887176 -1.0229121 0.4665729 -0.4922273 -2.127541 -0.11960702 0.49566194 -1.3857355 -1.1798245 -0.06940233 0.92465466 0.9400586 0.14762321 -0.25936493 -0.6506983 1.37328 1.530585 0.32084087 1.280909 -0.97375983 -0.30158857 -1.0010165 0.5817428 -0.89607173 -0.48235652 -0.46159786 0.67693055 1.4193424 0.11378525 -0.37596896 -0.73437315 0.039958082 2.321107 -0.14902246 -0.7062853 1.0322281 -0.6411127 -1.3005332 -1.4053081 -0.4324484 -0.3731118 -0.67068297 -0.4304516 -1.1988941 -0.7647234 0.61156034 -0.51390815 0.5959699 1.7783382 2.1785965 0.04590043 0.39685562 -0.3074874 0.017898541 1.2759883 0.4816343 -1.1502033 -0.17753819 0.009193347 -0.5682379 0.48113775 -1.3992301 0.3504519 -1.4176005 1.429295 -0.3267861 -0.80409074 -0.014139642 2.9102004 -1.2209519 0.8253564 0.72655785 -0.7501718 1.5044581 -0.97124904 -0.45924535 -1.9046887 1.8652749 -0.6720646 -2.0142264 -1.4670297 0.435451 1.6400898 -0.08358492 0.6543853 0.12124366 0.11746881 0.012235467 0.8295955 1.0542833 -0.64510363 1.2736839 -2.110192 -0.4967161 0.41248423 0.9401891 0.4242415 -0.5108564
must 1.0138975 -0.16474544 0.3435599 0.31228843 0.60324 1.0258316 -0.59714687 -0.8912008 -0.28642356 -1.3978652 0.55911773 -0.089892946 -1.0984018 -0.33191717 -0.34219226 1.6392713 0.08217808 -1.1555487 -1.585844 0.44467247 -0.9466065 -1.1180052 0.94709885 -1.9128869 -0.10837995 -0.99743253 0.31476673 -0.79075325 1.3972383 0.8825733 -0.05206191 -0.104242206 -0.2924249 0.7392505 0.9502383 1.5095654 -0.17977685 -0.88803303 -2.0903869 -0.10406194 1.7878882 0.3746292 1.1633971 -0.2247461 -0.27437818 1.0316426 -0.8159916 0.083721094 0.40492758 -1.5624828 -0.75453734 -0.7479874 -0.5520132 1.2455459 0.9877697 -0.13779458 0.4641045 -0.25267878 1.1613702 -0.70972455 -0.7419711 -0.30192292 -0.9458954 -0.25998518 -0.3983906 -0.60597545 0.20515208 -0.46038067 -0.46621245 -1.1064533 1.0961221 1.7144598 0.3432334 2.4250455 -0.5670288 -1.913279 0.94042695 0.19402124 -1.7465475 0.033598907 1.4137087 0.37709203 0.7249131 -0.38513702 -0.88528234 0.18341878 0.24443136 0.10191117 0.68405324 -0.42948088 -0.5130073 0.34741825 -1.2228519 -0.48708913 -0.52991253 -0.18752591 1.9802239 -1.4881462 0.7243342 0.29034492
'm 0.54374105 -0.15824103 1.7013934 0.039305955 -0.8734134 -0.7861878 1.1786015 0.83309925 -0.42573842 -0.83357024 1.0064043 -0.19973417 -0.5990045 -1.0636014 -0.89278835 -2.0355344 1.968421 0.36738443 0.47513917 -0.55191225 -1.099328 -1.0080994 -0.8795554 1.2411978 -0.3003922 -0.37320027 -0.30461422 -0.044263244 -0.6797519 1.3317837 -0.05158432 -1.7276008 2.2382693 -1.5730418 1.4190335 -0.2763884 -1.5287961 -0.4546063 0.37475124 -0.10620356 -1.1604431 -0.05046743 0.21163797 0.7606794 0.4292126 1.7817383 -0.5642678 -0.5532454 -0.349673 1.545007 0.4888611 0.6681902 0.16420186 0.68544906 0.1220612 0.7880736 -0.23104401 0.8331729 1.0635278 1.2934294 0.114612095 1.3140193 -0.017624805 1.7058197 -2.3884034 -1.0351964 0.5142108 1.5297529 -1.5295548 0.45643786 1.499618 0.6824587 0.697953 -0.22899374 -0.6659872 0.72354764 0.42271414 1.8883682 -0.06582401 2.4609835 0.13380747 -0.42833352 0.030341452 0.87974125 0.5309651 0.16016395 -1.6363723 1.2056705 1.1372766 -1.3485588 0.2828458 0.27839482 1.1079509 -1.7728761 0.7067383 -0.13759936 1.8548706 -0.6806793 1.0855594 0.4934403
about -0.8977934 -1.6707883 -0.5788286 -0.20509075 -0.042725638 -0.027150273 -0.82223403 -0.5261048 -0.70774275 -1.0884042 -0.384487 -0.9110217 0.8073744 1.6850175 0.3259447 0.5683207 0.55845463 -1.9790599 -0.15004036 0.19069743 1.8526675 -0.32042804 -0.13699134 1.031922 -1.9409652 0.9951378 0.30556673 -0.97169036 0.103079066 1.9735513 -0.7301276 2.9961843 0.7328173 -1.1314391 0.10240893 -0.9475339 -0.0096009765 0.99459416 0.33055875 0.99943304 1.1464534 1.3767171 -1.17536 -1.3651314 -0.20921718 0.8839667 -1.3841144 1.5924411 -0.95971715 -0.6574868 -2.8209035 1.0490117 -0.93706083 0.95465386 0.48145637 0.5080405 3.5528846 -0.35215327 -0.100494355 -0.14748827 0.27762136 1.2352681 0.30458358 2.606032 -1.2530607 1.5293292 0.029099384 -0.577445 0.7958826 0.8064461 -0.06121029 -0.6494355 0.53417903 0.7118695 -0.017140647 0.1128072 0.38247785 0.13310973 -1.668016 -0.60990465 -1.30933 -0.16614236 0.8503559 0.740959 0.30057052 -0.7014968 -0.6654108 1.475707 -0.022545304 1.3076011 -0.76873356 -0.92667294 -0.7519819 2.5618174 1.8430611 0.118812114 0.18354146 0.36962855 -0.063876055 0.08532542
tell 0.923488 -0.16491471 -1.185232 -0.599863 1.1870154 1.0892041 1.6786718 0.3120278 -0.084044784 0.42346904 0.70232284 -1.0633719 -0.44235814 -0.17627904 1.207444 -0.33293635 -0.14343497 1.2482803 -1.0487653 0.39441785 0.32480916 1.6756003 0.733809 1.9309216 -0.58589137 -1.1638713 0.10029463 -1.7315004 2.031627 0.21571252 -0.43769035 -1.4346044 -0.46327564 1.848639 -0.118295744 -0.0076099355 1.1185756 1.5192614 -1.1270173 1.1233042 1.7037445 -1.3224777 0.619186 0.313273 -0.1778305 0.7470089 1.9884984 -1.0475097 -1.0174234 0.41707814 1.1162271 -1.0972948 0.34013444 -1.9615276 -1.9165831 -0.47022521 -1.6504946 -1.857268 -0.052794967 -1.1520271 0.25755134 1.0497462 -1.9135289 0.48515856 -0.0042999303 -0.58115214 -0.38326102 -0.16901325 0.55621666 0.9957061 0.93738884 -0.5079399 -0.96208006 -0.7539037 -0.38959223 -1.0995978 -1.464094 0.64279956 -0.656718 0.23290293 0.63340276 -2.1441476 -1.3546101 1.9084595 -0.49958602 0.75453264 -1.3640186 -0.44011864 0.22076564 -0.22453517 0.57150465 -0.114522345 -0.44345236 -1.0776888 -0.89509165 -0.7535611 -1.0720471 -0.4820696 -1.3089572 0.012515933
give -0.4812122 -0.15588391 -0.21898617 1.3934382 1.5481364 1.1971977 -0.5796254 1.5816896 0.480311 -0.6120917 -0.011156142 -1.1571107 0.8901314 2.1046638 -0.3335407 -0.09715893 0.0030194528 0.82011354 -0.088533685 -0.7016912 -0.7910275 0.49444184 0.22075243 -0.4049827 -0.4342386 1.4056982 -0.12789865 0.44388327 0.5724618 -1.9340588 -1.2729849 -0.36526123 -1.799672 -1.4054861 0.008222199 -0.44571427 -0.57079166 -0.65582424 -1.0694373 0.9983427 -0.9987381 -0.24793307 0.1658084 0.46600828 -0.229244 0.3847863 -1.1108441 0.9346937 0.36682823 -1.7612382 0.46056116 -0.4141873 0.5297169 0.49693924 -0.9765088 -0.2855094 -0.011404285 0.45552468 -0.36533567 0.5492708 -0.388889 -0.03201602 -1.3543749 1.9285754 -0.82394046 -1.3479491 -1.0380965 1.1457266 -1.6435653 -0.17701393 0.47757322 0.051724907 -0.5675258 -1.0322332 -0.19358343 0.9469711 0.43469882 -0.72036654 -0.34690842 0.92882466 -0.98247916 -2.5084002 -1.5792296 0.11385561 -1.0618725 -1.3276474 -1.0909814 0.43026054 1.7150253 -1.495096 0.05401625 0.5641665 -0.8908391 1.5913986 -1.5168928 -1.0182185 -0.016779201 -1.0510974 -0.8965632 -0.14681627
going 0.8174989 -0.40752095 1.5984589 -0.57248694 -0.5149156 0.07653667 -0.39224446 0.14315793 1.1446679 -0.60047513 1.1086743 -1.6247532 -1.4718336 -0.15798421 -0.39157838 -0.741662 -0.17153831 1.0993954 0.3652658 -0.7389695 -0.15499578 -0.27532193 -0.23472314 0.50526327 0.23176514 1.2836509 2.2786043 0.57267046 0.5650575 0.018766234 -0.4993563 -1.0318434 -1.3265586 -0.31602344 0.45838383 -0.66799915 -0.9388631 0.1921588 -1.4020619 1.5587097 -0.93840635 -0.76761436 -1.1703274 -1.4687504 0.8472155 1.6531782 2.7842073 -1.4188621 -1.2780784 0.19828723 -2.0857494 1.5480772 -0.41429552 -0.15599088 0.37673885 1.9269707 0.2574745 -0.50551474 0.5069448 -1.1325501 1.2184337 0.9545289 0.46690628 -2.0781684 -0.6343598 -0.16088402 -0.22920789 -0.35823447 -0.7380211 0.85414803 -0.0051706024 -0.5834763 0.5095881 1.1486238 0.29086173 0.43758982 0.4469818 0.16848691 0.9195492 -0.066298895 -2.1766663 -1.9208548 0.5162845 -1.1166695 -0.333747 -0.778991 0.13889141 -2.2781 2.8961878 2.1156936 -0.03737751 1.2977762 -0.20212075 -0.16428617 0.27349943 -0.5313725 0.42510638 1.8389896 -0.45167658 -1.9968898
morning 0.27246252 0.062404018 -0.7080308 -0.22503003 0.4616818 1.6512219 -1.275571 -0.06814868 1.1972815 -1.2167395 1.4327163 1.8787054 -0.88279784 0.312339 -0.06576685 1.2625782 1.4123203 0.17879844 -0.37423804 0.31072494 1.3325874 1.9019098 1.7546768 -0.22465962 0.08513712 0.42620888 0.98301846 0.5853857 -0.6722961 0.56291896 -0.2563816 1.3797052 -1.714429 -0.9482457 0.31654 0.2017062 0.2920408 -0.0047961464 1.1419092 -0.6522231 1.6267097 -0.99305725 0.14393535 -1.1909841 -0.11111532 0.6581162 0.6334183 -0.4407445 -1.1359266 0.7170639 -0.61878836 -1.4733413 -1.4019809 0.8829807 -0.64627635 -0.39788583 -0.89483756 -1.2125002 -0.16211645 -0.5452675 2.5196502 0.012488838 -0.36340833 0.17758131 0.09113866 0.6800079 1.4523925 -1.4236531 0.7303357 0.17557694 -1.5354517 -0.050542347 -0.39816946 0.62201047 0.28940347 -0.63810384 -0.4171478 1.0972633 -1.7093182 -0.1444309 1.1553086 -0.17168632 -1.1270975 -1.4117887 -0.66241395 0.3582443 1.4073502 0.91089606 0.6511524 -0.7317073 1.1209772 0.3413268 -1.3191012 -1.6910989 0.9948861 -0.09554707 -1.5708808 -0.07331079 -0.32183117 -0.6744113
letter 2.2227008 1.2040823 -0.7115094 0.63508314 -1.2961369 0.10019366 0.06996552 -2.1835058 -0.6580557 -0.3436716 -0.5228211 -0.7661633 1.0791652 0.19661622 1.1374327 -0.8735892 0.21303907 1.8853719 1.3007699 -0.008519489 -0.010146146 -0.25317597 -0.2844811 -0.002114387 -0.75660366 -0.9028273 -0.41765472 0.8218154 0.51698124 0.5813568 1.2851801 -1.3591237 0.9325801 1.1795762 0.60636485 -0.6525677 -0.98964775 -0.5461941 1.5491781 3.0840228 -0.8490929 0.36289424 -0.32602218 0.70749706 -0.30660984 1.1306568 -2.0042372 -0.6553872 -1.704298 -0.3658863 0.12298403 0.63498175 0.26960984 -0.92023134 -0.96400136 0.47862372 0.48506197 0.6447457 -0.94194746 2.1520033 -0.34490246 -0.17932709 0.4901182 0.05321154 -0.6760258 0.27110985 -0.35632434 -0.917961 -0.6430245 1.6066428 1.5486149 0.18392026 0.12727924 -0.5548068 0.65304184 -1.0928986 0.58480144 1.4072248 -0.0097988285 -1.1766604 -0.8309581 1.2238249 0.08023911 0.46311784 1.9048997 0.32184538 0.3003265 0.9192966 0.8728495 -1.6135503 0.33356106 0.031811394 -0.65161467 -0.40356725 -0.810414 -0.04159781 -0.7051345 1.5406228 -0.9437686 0.3791637
! -0.021941701 2.2542038 1.6141504 0.48643672 0.09557271 -0.08323122 -0.5335435 1.430467 0.8972907 0.8383308 -0.08678505 0.57603383 0.46212643 1.269297 -0.36555037 -0.13172285 1.0321925 -2.3485444 -0.5616861 -0.23922767 -0.92085975 1.0889574 -0.04567942 -2.150496 -0.3660095 -0.47685343 -0.7128243 0.06435585 -0.3430975 -0.8378673 0.69906026 -1.6574345 -0.04957838 0.0911113 0.9447933 0.92801535 1.4166831 -1.9369348 0.11413593 -0.60748494 1.0976301 1.4263203 -1.3142381 1.2172734 0.3112982 2.1479912 -0.9650905 -0.93064904 -0.31057772 0.9270788 -1.496718 0.5474337 -0.19071229 -0.2670908 0.6016029 1.3959479 1.4700528 2.6061652 -0.39616457 0.12958781 1.3804456 -0.65504026 -0.94000715 -0.614308 -0.94170487 0.42129236 0.7968564 0.4007215 -0.8068473 -1.0689785 0.5948081 1.5942403 0.051685967 -0.10324589 0.45341855 -0.29298598 1.2018274 -0.5995645 0.8561288 -0.3953599 -0.5496825 -0.9944382 -0.41906875 -1.336642 0.59927505 0.027542572 -0.37476465 -1.4314301 0.3372344 -1.7984945 1.6236018 0.8679075 0.4377955 0.0713823 1.9977925 -1.0594373 1.2439075 -0.9160019 -0.53498507 -0.16482925
well -0.065430716 0.6287696 -0.67173517 2.0269756 -0.38230476 -0.016968869 1.8600918 -0.7173794 -1.7498307 0.5583418 -0.5689736 -2.6426208 1.1706847 1.7640284 -0.6761884 0.93542427 -0.010006322 -0.4405839 0.8018022 -1.6149031 1.2426088 -0.6840638 0.7461576 1.2697428 1.7950104 -2.3140996 -0.22301903 0.43855268 -0.22290798 -0.18822324 -0.64559686 1.4809097 -0.37102064 0.2173551 -0.99228156 -2.3744175 -0.5854311 0.22639191 0.40413237 -1.0266818 0.4280723 -0.9792103 -0.60170245 0.8979954 -0.97191167 0.52119726 0.58250546 -1.2464131 -0.34628135 0.31671262 0.72222114 0.7478029 -0.29368034 1.2660642 0.6154548 0.3407231 -1.0492492 0.4454033 0.73186344 -0.7461934 -0.9283194 2.2042224 0.9518071 0.34601462 -0.9800332 -2.3494868 0.31630775 -0.67060745 0.43626347 0.43771994 -0.31582394 -0.0060906955 -0.36470047 -1.2615964 -0.98290575 -1.5839727 -0.3823448 0.48020476 -0.23224473 -0.8451357 -2.0844736 0.22786722 1.1865305 0.55986756 -0.12072021 0.022908967 -0.29058883 1.8565565 0.25483674 -0.101581715 -0.14233303 1.2011758 -0.31261912 0.9482785 -1.2184902 -0.41091603 1.0943037 0.47544366 -0.490563 0.67258215
so 0.24628384 -0.9276598 -0.66060627 0.680679 -0.15906867 0.9701591 -0.83055717 -0.41866657 3.0789824 -0.80936795 0.567959 0.7368721 0.71688414 0.54026085 -0.30152112 -0.18714431 -0.051447805 -0.010237565 -0.7350267 0.15842369 1.2161994 -0.89769804 0.3742436 -0.55846614 0.13445343 0.44022825 0.63060737 1.6050822 0.37535205 -0.048157416 -0.014150576 1.3168424 0.3841022 0.35536137 -0.92866653 -0.8894659 0.27485523 0.07605114 -0.8556716 0.8061892 0.81743586 0.9487528 1.2583787 1.5496813 0.705813 -0.6563227 0.63682914 -0.9714361 0.91328186 -0.95149094 -1.893245 -1.4222865 -0.17808701 1.3604399 -0.5071036 2.130754 -1.8484036 -0.5362812 -0.7848747 -0.94896257 -2.256972 -0.6552752 -0.43832886 0.06958339 -1.4246521 0.33531886 -0.17019388 -1.0446702 -0.36126152 1.1553574 0.7766062 0.80491763 -0.24750291 1.2679697 0.53282446 -0.093485564 -1.039788 0.9062775 -0.36552393 1.7442876 0.23525704 1.0578864 -0.09013593 0.13607258 0.7721358 -0.7056127 -1.2918843 0.98822147 -0.17703044 -0.25640187 0.7029396 -1.2798573 0.87870663 -0.62754 -0.22376777 1.2062584 0.07578793 -0.11272454 -1.4061048 0.5824393
today -0.74576646 0.25036493 1.905046 1.5137609 -1.1127346 0.3796385 -0.3399054 -1.1776636 0.77260274 -0.31756428 -0.74636203 1.4860493 0.49996173 -0.29783064 0.5022158 -0.54025686 0.43669885 -0.42702824 0.6675902 -2.0546715 0.8746107 0.39923114 -1.8816124 -0.061502267 0.7385449 -1.0803878 0.33481696 0.5112865 1.3276359 0.5142105 -0.68703544 0.49893844 -2.564287 -0.0028915692 -2.0951815 1.1863383 0.6564563 0.5901611 0.07007416 -0.7990077 -1.1835016 0.29020634 -0.1325645 -0.54326075 0.44341582 2.1878066 0.6057754 -0.19534776 0.8050985 1.8643807 -0.4500197 -0.26010868 -0.9161941 0.058159508 -0.28377348 -0.15619297 -0.39852926 -1.7796819 0.6816372 -1.4507395 -0.6372079 -1.0312743 1.1991291 -0.7318721 -0.1829358 1.3283983 0.35117558 -2.2888298 1.2217298 -0.39673033 1.031058 1.7501765 0.8990002 -1.2608937 0.24107124 0.44597924 -1.6766639 0.056205854 -0.9432073 -1.3951576 0.31867617 1.6074729 0.15656355 -0.89109683 0.85106003 -0.6112493 0.9230195 -0.44182894 0.9964288 -0.4857296 0.5428256 -0.2476074 -1.1213807 -1.2696775 -0.44266096 1.5357879 1.3001336 1.5567834 0.24287392 1.5075818
let 0.5926226 1.0240351 -0.6240438 0.25088996 -1.0629227 1.6482923 0.26813963 -1.1755825 0.19902328 -0.024588298 0.68375456 -0.8373888 0.6221792 -0.44993627 -0.9191436 0.5629089 -0.52745134 0.7548082 -1.7940937 -0.09485333 -0.26158068 -0.61429083 1.1605308 -0.6282024 0.41451454 0.069261484 0.72463757 -0.28233376 -0.42924812 0.05194531 0.36938846 -0.18174039 0.3421477 -1.0911834 1.0254182 -0.15192018 0.059305128 -0.02937483 -0.8442032 -1.5981352 -0.83694214 2.7539284 0.024954813 -0.04147752 -0.40043074 -0.22316206 0.27465108 -0.63002616 -0.93567395 -0.18129681 0.39520663 1.6519997 0.70024335 0.43818596 -0.6648894 -0.5018543 1.1805989 2.4542327 1.1815339 -0.11051904 -0.25741023 1.061261 0.8501409 -0.88780355 -1.4943721 -0.6498436 -0.7456307 -0.17312746 1.2883495 -1.8995512 2.2609522 -0.8136991 -1.0681348 -0.4457352 -1.1346768 1.7531776 -0.1681698 -1.2465222 0.5812459 -1.8326426 0.35606048 0.74871415 1.2384106 -0.2780268 -0.5342684 -0.14131829 -0.4816942 -0.14034073 -1.7498511 -1.7094779 -0.3317605 1.4146518 -2.1977532 0.9875743 0.10445413 1.4306704 -0.10259944 -0.22834095 -0.33728048 1.1336893
work -0.76019675 -0.23041 0.64282435 0.5522462 1.0005685 -0.8044949 -0.10894258 0.85109967 -0.07614922 0.6972367 -0.113561004 0.74277467 1.156175 0.90345025 -0.5818337 -0.6533722 -2.0249376 -0.91890335 0.8087091 0.9807214 1.5814631 -1.1814662 -0.028984185 1.0508007 0.5555408 -0.16067125 -0.15041386 -1.8145238 0.046696723 -0.05897884 -0.8227133 0.18344088 0.89188653 -1.0785167 -1.6560423 1.9609607 -1.067273 -0.24545947 0.66427267 0.19139941 -0.9356032 -0.119150445 -0.13644998 -0.10878763 -1.3722363 0.86322755 0.35742792 0.12808621 -0.465527 -1.5413568 -0.49650866 0.30626306 -1.1695241 0.38610622 0.9189428 0.91435415 0.67210597 0.20986477 2.5507638 -0.9322169 -0.9783875 1.1208562 0.10912491 1.0259157 -0.5289359 -0.4509518 1.7759789 -2.0246682 -2.1526062 0.025561912 -0.072207026 -0.36223972 0.0057925996 -0.4354517 1.0122912 -1.2437078 1.7059869 -0.57860154 -0.015051334 0.011362562 0.39314145 0.7150246 0.38143274 -0.2546084 -0.8277495 -1.1521262 -0.60694075 -1.625648 0.3700338 0.9103622 -0.030257376 -0.5477051 1.4592973 0.060339935 0.68293333 -0.96738505 0.19341066 0.5498019 -0.7998726 -1.123762
speak -0.038376886 -0.48742923 -0.61346614 -0.03922283 -0.83995014 -0.8014618 0.27402568 -0.99482083 0.10042783 1.6154014 -0.3232253 0.821313 2.7313218 2.8674915 1.6002774 -0.063333124 -0.035939336 0.19930646 -0.16953744 -2.0011404 -0.6099975 -0.8908891 -0.3899962 1.1167859 -1.6580405 -0.07275715 -1.6115309 -1.1903698 0.20086543 -0.2828967 0.16196126 0.16546462 -0.8465459 -0.63970536 1.755598 -1.0055779 0.34399933 -0.5110749 -0.6477684 -0.39676622 0.2721962 -0.9753582 0.48244545 -1.0730835 0.8946256 -0.6557731 0.5742156 2.005335 -2.142488 -0.10443264 -0.58405405 -0.011320187 0.1507805 -0.7896269 0.15419132 0.2678369 -0.35132673 0.37217924 -0.8186418 -1.5890031 -0.5758558 2.9813151 0.849503 1.1830305 0.98544496 1.4595009 -0.6527809 -0.87545574 -1.2078083 1.4226885 0.31787053 -0.16156693 -1.0106108 1.6753691 0.84901774 -0.16213596 -0.38924044 1.4114506 -0.35409883 -0.49741787 -0.071842276 -1.3928465 0.19078903 -0.081276365 -1.2671591 -1.2475833 -0.8659193 -1.5096335 1.0254351 -0.7630586 -0.0046580397 1.5550805 -0.16746156 -1.2771264 -2.3478882 -0.146869 -0.6503267 -0.97123563 -0.09170463 -1.3439628
